// #### Generated By: http://www.cufonfonts.com ####
/*!
 * The following copyright notice may not be removed under any circumstances.
 * 
 * Copyright:
 * Copyright (c) SIL International, 1997-2009. All rights reserved.
 * 
 * Trademark:
 * Charis SIL is a trademark of SIL International.
 * 
 * Manufacturer:
 * SIL International
 * 
 * Vendor URL:
 * www.sil.org
 * 
 * License information:
 * http://scripts.sil.org/OFL
 */
Cufon.registerFont({"w":1202,"face":{"font-family":"Charis SIL Bold","font-weight":700,"font-stretch":"normal","units-per-em":"2048","panose-1":"2 0 8 0 7 0 0 2 0 4","ascent":"1638","descent":"-410","x-height":"25","bbox":"-184 -1630 3602 605","underline-thickness":"120","underline-position":"-230","unicode-range":"U+000D-U+2188"},"glyphs":{" ":{"w":600},"\r":{"w":1024},"!":{"d":"350,-305v95,0,164,63,164,162v0,99,-65,168,-164,168v-98,0,-166,-63,-166,-168v0,-102,69,-162,166,-162xm182,-1241v-22,-183,263,-221,321,-75v9,21,17,46,13,75r-110,815r-111,0","w":696},"\"":{"d":"82,-1333v1,-77,36,-129,117,-129v81,0,131,53,118,129r-79,479r-76,0xm483,-1333v1,-77,36,-129,117,-129v82,0,134,53,121,129r-82,479r-76,0","w":803},"#":{"d":"678,-848r-90,270r254,0r94,-270r-258,0xm1079,-848r-88,270r318,0r0,129r-363,0r-155,498r-142,-35r152,-463r-256,0r-160,498r-137,-37r153,-461r-274,0r0,-129r315,0r88,-270r-303,0r0,-135r346,0r158,-471r137,37r-151,434r266,0r152,-471r141,39r-154,432r269,0r0,135r-312,0","w":1518},"$":{"d":"651,-133v110,-19,183,-83,183,-213v0,-124,-88,-173,-183,-201r0,414xm530,-1237v-91,16,-147,73,-147,186v0,115,62,172,147,201r0,-387xm651,-1368v137,2,260,31,371,59r0,342r-141,0r-39,-227v-38,-29,-130,-42,-191,-49r0,422v23,6,50,13,80,23v182,59,363,142,363,378v0,269,-202,377,-443,418r0,211r-121,0r0,-209v-149,-8,-296,-28,-419,-68r0,-354r145,0r43,240v60,37,143,50,231,55r0,-451v-203,-61,-407,-138,-407,-399v0,-258,175,-364,407,-391r0,-152r121,0r0,152"},"%":{"d":"463,-662v94,-70,84,-316,68,-475v-11,-107,-71,-221,-174,-157v-125,78,-111,433,-47,577v25,56,94,98,153,55xm1471,-80v93,-72,82,-315,67,-473v-9,-106,-70,-219,-172,-157v-103,63,-99,318,-74,474v14,90,39,173,127,173v19,0,37,-5,52,-17xm412,-1407v251,0,350,173,350,428v0,255,-99,430,-350,430v-252,0,-353,-174,-353,-430v0,-256,101,-428,353,-428xm563,0r-145,0r850,-1374r147,0xm1419,-823v252,0,353,173,353,428v0,255,-101,428,-353,428v-250,0,-348,-173,-348,-428v0,-255,98,-428,348,-428","w":1831},"&":{"d":"1026,-1079v0,206,-142,297,-307,338r315,327v47,-63,89,-137,109,-229v2,-11,-14,-33,-21,-35r-106,-18r0,-97r430,0r0,97r-141,28v-43,138,-109,250,-191,340r193,207r166,17r0,104r-447,0r0,-49r-86,-96v-100,94,-227,170,-420,170v-207,0,-345,-91,-410,-237v-21,-49,-32,-104,-32,-165v2,-210,128,-298,287,-352v-92,-71,-189,-163,-189,-324v0,-245,196,-348,445,-348v228,0,405,91,405,322xm354,-471v0,202,109,319,301,319v94,0,157,-33,201,-81r-405,-424v-54,39,-97,93,-97,186xm641,-815v69,-65,133,-128,131,-260v-2,-114,-51,-203,-162,-203v-122,0,-194,106,-154,228v33,100,108,163,185,235","w":1505},"'":{"d":"63,-1333v1,-78,35,-129,117,-129v81,0,132,53,119,129r-82,479r-74,0","w":360},"(":{"d":"733,-1358v-319,51,-352,397,-352,768v0,291,25,555,175,692v46,42,105,68,177,78r0,111v-339,-15,-500,-229,-573,-519v-52,-207,-52,-515,0,-722v73,-291,235,-501,573,-518r0,110","w":803},")":{"d":"526,-1224v200,275,206,985,0,1271v-99,138,-239,237,-456,244r0,-111v318,-52,352,-400,352,-770v0,-290,-26,-553,-176,-690v-46,-42,-105,-68,-176,-78r0,-110v216,8,356,107,456,244","w":803},"*":{"d":"418,-733r-156,41r-6,-160r219,-160r25,25xm463,-1038r-266,2r-88,-133r147,-60r219,162xm762,-692r-156,-41r-82,-254r25,-25r219,160xm528,-1092r-34,0r-84,-256r102,-122r102,122xm825,-1036r-264,-2r-14,-31r217,-160r151,60","w":1024},"+":{"d":"1087,-551r0,551r-126,0r0,-551r-551,0r0,-127r551,0r0,-551r126,0r0,551r551,0r0,127r-551,0","w":2048},",":{"d":"301,-317v122,-4,198,76,195,196v-5,198,-107,321,-227,407v-53,39,-120,68,-197,74r0,-100v140,-25,252,-102,245,-274r-124,0v-37,-30,-64,-69,-64,-131v0,-105,70,-168,172,-172","w":651},"-":{"d":"68,-385r0,-217r536,0r0,217r-536,0","w":672},".":{"d":"301,-317v103,0,170,69,170,172v0,103,-67,170,-170,170v-102,0,-172,-68,-172,-170v0,-103,69,-172,172,-172","w":651},"\/":{"d":"160,190r-160,0r864,-1564r162,0","w":1026},"0":{"d":"829,-792v-5,-183,-31,-368,-135,-456v-49,-41,-140,-43,-187,0v-138,126,-140,407,-133,668v5,181,30,365,133,452v48,42,139,42,187,0v140,-124,142,-404,135,-664xm1004,-1186v160,225,166,766,0,1000v-85,120,-207,213,-404,211v-297,-3,-437,-192,-496,-437v-65,-267,-22,-606,94,-774v83,-121,206,-213,402,-213v197,0,319,93,404,213"},"1":{"d":"236,0r0,-106r176,-7v23,-2,46,-20,45,-45r0,-1024r-305,43r0,-108r442,-160r151,0r0,1249v-1,26,22,44,46,45r161,7r0,106r-716,0"},"2":{"d":"258,-928v-97,2,-154,-58,-154,-151v0,-224,200,-292,402,-321v253,-36,445,61,527,232v56,116,46,265,-17,375v-139,248,-420,407,-656,572r582,0r39,-180r131,0r0,401r-1024,0r0,-170r250,-192v149,-121,307,-262,391,-446v26,-57,39,-115,39,-175v0,-168,-87,-281,-254,-287v-51,-2,-78,15,-117,27r0,276v-39,19,-82,38,-139,39"},"3":{"d":"283,-965v-96,0,-160,-49,-160,-147v0,-164,149,-234,292,-273v174,-48,389,-12,499,67v80,58,151,140,149,271v-3,197,-146,274,-303,317v-18,5,-33,6,-42,7v216,16,394,101,394,330v0,211,-146,309,-302,375v-172,73,-471,66,-604,-34v-60,-45,-113,-100,-118,-186v-8,-130,135,-167,240,-122r65,231v72,24,170,55,251,13v92,-47,167,-132,167,-265v0,-163,-115,-246,-287,-250v-49,0,-98,6,-143,10r0,-153v208,13,383,-46,383,-250v0,-116,-72,-188,-158,-226v-66,-30,-151,-20,-213,5r0,252v-30,21,-67,28,-110,28"},"4":{"d":"702,-1090r-430,539r430,0r0,-539xm963,-385r0,418r-261,0r0,-416r-628,0r0,-176r667,-848r222,0r0,856r167,0r0,166r-167,0"},"5":{"d":"336,-817v133,-44,335,-70,484,-19v165,57,300,163,300,371v0,260,-179,395,-384,463v-222,74,-515,27,-615,-118v-24,-34,-37,-72,-37,-116v1,-116,132,-160,242,-114r65,244r107,16v168,-1,268,-96,311,-217v66,-185,-57,-318,-205,-363v-135,-41,-311,-9,-442,13r0,-717r880,0r0,227r-706,0r0,330"},"6":{"d":"838,-432v4,-214,-128,-334,-350,-296v-47,9,-82,20,-117,36v-17,225,10,452,136,553v55,44,150,53,210,11v81,-56,119,-169,121,-304xm383,-807v82,-52,183,-102,317,-102v214,0,345,112,403,268v75,201,-15,426,-124,530v-85,81,-205,144,-358,144v-378,0,-547,-245,-547,-629v0,-416,203,-659,522,-762v108,-34,228,-50,360,-49r0,160r-90,-10v-292,20,-442,180,-483,450"},"7":{"d":"436,-29r0,62r-262,0r668,-1161r-592,0r-31,190r-143,0r0,-436r1050,0r0,145"},"8":{"d":"604,-98v139,0,246,-68,246,-207v0,-219,-237,-251,-395,-330v-53,59,-121,127,-119,244v2,134,71,223,164,269v33,16,67,24,104,24xm723,-780v68,-68,131,-210,85,-342v-30,-84,-93,-156,-202,-156v-118,0,-196,79,-196,197v0,189,178,234,313,301xm1075,-1047v-1,185,-129,257,-254,316v162,53,307,141,307,354v0,227,-156,334,-340,385v-207,57,-451,8,-568,-90v-79,-66,-145,-157,-146,-289v-1,-196,138,-270,284,-315v-114,-52,-229,-142,-229,-307v0,-293,214,-414,502,-414v189,0,334,76,405,201v26,45,39,98,39,159"},"9":{"d":"367,-940v-4,214,125,333,348,296v48,-8,84,-19,119,-36v11,-230,-8,-454,-137,-556v-55,-43,-149,-52,-209,-10v-82,56,-119,171,-121,306xm584,-1407v377,0,546,247,546,631v0,416,-203,658,-522,760v-108,34,-228,50,-360,49r0,-160r90,10v291,-19,441,-179,481,-448v-82,54,-180,102,-315,102v-215,0,-346,-113,-404,-269v-74,-202,16,-426,125,-530v85,-81,205,-145,359,-145"},":":{"d":"301,-1024v103,0,170,69,170,172v0,103,-67,170,-170,170v-103,0,-172,-67,-172,-170v0,-103,69,-172,172,-172xm301,-317v103,0,170,69,170,172v0,103,-67,170,-170,170v-102,0,-172,-68,-172,-170v0,-103,69,-172,172,-172","w":651},";":{"d":"301,-1024v103,0,170,69,170,172v0,103,-67,170,-170,170v-103,0,-172,-67,-172,-170v0,-103,69,-172,172,-172xm301,-317v122,-4,198,76,195,196v-5,198,-107,321,-227,407v-53,39,-120,68,-197,74r0,-100v140,-25,252,-102,245,-274r-124,0v-37,-30,-64,-69,-64,-131v0,-105,70,-168,172,-172","w":651},"<":{"d":"410,-551r0,-127r1228,-471r0,127r-1097,408r1097,407r0,127","w":2048},"=":{"d":"410,-365r0,-127r1228,0r0,127r-1228,0xm410,-737r0,-127r1228,0r0,127r-1228,0","w":2048},">":{"d":"410,-80r0,-127r1097,-407r-1097,-408r0,-127r1228,471r0,127","w":2048},"?":{"d":"426,-305v103,0,166,70,166,172v0,98,-70,158,-168,158v-96,0,-156,-70,-156,-166v0,-97,61,-164,158,-164xm291,-1036v-100,16,-207,-19,-201,-127v11,-187,193,-244,383,-244v209,0,356,87,429,228v60,116,32,294,-34,377v-89,112,-216,182,-374,222r0,174r-140,0r0,-272v162,-49,297,-140,297,-344v0,-170,-97,-258,-268,-260","w":1069},"@":{"d":"1616,137v-220,123,-545,239,-880,159v-300,-72,-506,-257,-588,-548v-73,-259,-1,-571,108,-735v164,-246,419,-420,813,-420v341,0,571,136,677,377v81,184,56,476,-32,626v-92,157,-217,292,-444,302v-108,5,-163,-51,-176,-144v-79,61,-150,142,-281,142v-197,0,-285,-141,-285,-340v0,-259,146,-428,330,-516v108,-51,257,-61,352,-2r43,20r27,-51r172,0r-143,608v-14,58,-35,161,47,152v80,-9,129,-75,173,-135v91,-121,146,-365,88,-560v-68,-228,-239,-375,-521,-375v-332,0,-535,164,-666,377v-104,170,-140,479,-55,698v98,253,299,435,639,435v239,0,400,-86,559,-172xm798,-639v-50,155,-36,453,166,377v54,-20,86,-71,121,-113r82,-420v3,-58,-32,-108,-92,-108v-159,0,-234,129,-277,264","w":1917},"A":{"d":"631,-1092r-172,492r348,0xm829,0r0,-104r121,-15v12,-1,24,-19,19,-35r-111,-325r-438,0r-113,317v-9,62,91,44,144,58r0,104r-441,0r0,-104r115,-17r459,-1286r233,0r455,1249v12,49,76,40,123,54r0,104r-566,0","w":1405},"B":{"d":"863,-731v220,10,368,102,370,332v4,299,-170,399,-473,399r-703,0r0,-104v57,-13,156,11,156,-56r0,-1054v-3,-66,-98,-44,-156,-56r0,-104r660,0v241,4,436,73,436,317v0,199,-132,285,-290,326xm506,-121v235,20,420,-28,420,-264v0,-228,-176,-275,-420,-258r0,522xm506,-768v211,16,346,-54,346,-256v0,-195,-143,-257,-346,-231r0,487","w":1309},"C":{"d":"1229,-49v-159,64,-425,113,-633,58v-258,-69,-429,-239,-496,-497v-42,-162,-29,-353,32,-492v117,-272,372,-458,771,-422v119,11,223,50,326,81r0,348r-160,0r-45,-229v-21,-54,-104,-66,-172,-66v-240,0,-366,150,-424,344v-63,211,-24,503,76,640v77,105,185,184,364,184v69,0,132,-17,154,-66r45,-242r162,0r0,359","w":1303},"D":{"d":"1077,-680v-1,-341,-113,-568,-442,-575r-129,0r0,1134v132,-4,262,2,352,-52v148,-90,220,-264,219,-507xm1359,-976v67,166,59,420,-3,582v-98,254,-318,394,-664,394r-639,0r0,-104v59,-13,160,11,160,-56r0,-1054v-5,-65,-100,-44,-160,-56r0,-104r627,0v351,2,577,147,679,398","w":1483},"E":{"d":"53,0r0,-104v59,-13,160,11,160,-56r0,-1054v-5,-65,-100,-44,-160,-56r0,-104r1045,0r0,327r-148,0r-32,-170v-5,-17,-16,-38,-37,-38r-381,0r0,481r243,0v18,1,32,-23,35,-37r19,-139r127,0r0,481r-127,0v-12,-54,-6,-121,-31,-163v-5,-9,-14,-13,-23,-13r-243,0r0,522r446,0v17,1,35,-26,37,-39r31,-213r149,0r0,375r-1110,0","w":1225},"F":{"d":"942,-1024r-29,-186v-3,-19,-15,-39,-36,-39r-371,0r0,504r254,0v18,1,32,-23,35,-37r20,-140r127,0r0,484r-127,0r-20,-140v-2,-13,-19,-36,-35,-36r-254,0r0,454v-1,27,21,43,45,45r133,11r0,104r-629,0r0,-104v58,-13,158,10,158,-56r0,-1054v-5,-66,-103,-44,-164,-56r0,-104r1041,0r0,350r-148,0","w":1145},"G":{"d":"985,-520v1,-26,-22,-43,-47,-45r-137,-10r0,-105r618,0r0,105v-56,12,-151,-10,-151,55r0,457v-192,87,-529,140,-760,45v-254,-105,-432,-322,-432,-672v0,-352,179,-567,440,-668v224,-87,558,-45,754,31r0,354r-160,0r-41,-221v-20,-62,-121,-78,-184,-78v-343,0,-492,232,-492,574v0,268,99,453,286,536v86,38,188,46,306,41r0,-399","w":1466},"H":{"d":"918,0r0,-104v56,-13,151,10,151,-56r0,-495r-563,0r0,495v4,65,97,43,153,56r0,104r-598,0r0,-104v56,-13,152,10,152,-56r0,-1054v-3,-65,-95,-44,-152,-56r0,-104r598,0r0,104v-57,12,-153,-12,-153,56r0,428r563,0r0,-428v-3,-65,-94,-44,-151,-56r0,-104r595,0r0,104v-57,12,-151,-10,-151,56r0,1054v3,64,95,43,151,56r0,104r-595,0","w":1575},"I":{"d":"47,0r0,-104v53,-9,123,2,159,-24v9,-7,13,-19,13,-32r0,-1054v-5,-70,-110,-43,-172,-56r0,-104r639,0r0,104v-63,13,-174,-15,-174,56r0,1054v8,67,111,43,174,56r0,104r-639,0","w":735},"J":{"d":"309,-90v208,-7,234,-191,234,-412r0,-712v-6,-69,-109,-43,-172,-56r0,-104r633,0r0,104v-62,13,-170,-16,-170,56r0,718v-3,329,-148,529,-480,529v-114,0,-220,-29,-305,-58r0,-374r160,0r47,274v7,21,23,35,53,35","w":1049},"K":{"d":"952,0r0,-76r-334,-524r-112,0r0,440v4,65,97,43,153,56r0,104r-600,0r0,-104v57,-13,154,10,154,-56r0,-1054v-3,-66,-96,-44,-154,-56r0,-104r600,0r0,104v-57,12,-153,-12,-153,56r0,516r57,0r441,-537v7,-9,2,-27,-11,-25r-116,-10r0,-104r469,0r0,104r-144,13r-381,454r430,686r146,13r0,104r-445,0","w":1397},"L":{"d":"55,0r0,-104v58,-13,158,12,158,-56r0,-1054v-3,-67,-99,-44,-158,-56r0,-104r611,0r0,104v-59,13,-160,-13,-160,56r0,1089r356,0v29,-2,46,-23,49,-47r27,-236r164,0r0,408r-1047,0","w":1135},"M":{"d":"1196,0r0,-104v55,-12,145,8,145,-56r0,-1075r-411,1235r-158,0r-403,-1227r0,1067v5,64,97,44,155,56r0,104r-473,0r0,-104v59,-13,162,11,162,-56r0,-1054v-5,-66,-102,-44,-162,-56r0,-104r588,0r0,57r289,877r286,-877r0,-57r582,0r0,104v-60,13,-162,-13,-162,56r0,1054v5,66,103,43,162,56r0,104r-600,0","w":1849},"N":{"d":"1464,-1270v-58,12,-155,-11,-155,56r0,1214r-250,0r-690,-1083r0,923v5,65,100,43,159,56r0,104r-473,0r0,-104v58,-13,158,12,158,-56r0,-1054v-3,-66,-98,-44,-156,-56r0,-104r506,0r0,55r590,924r0,-819v-5,-66,-103,-44,-164,-56r0,-104r475,0r0,104","w":1524},"O":{"d":"889,-120v233,-104,294,-458,233,-780v-26,-138,-87,-253,-180,-322v-74,-55,-192,-60,-283,-24v-356,142,-326,985,-7,1126v70,31,168,31,237,0xm1386,-1045v91,161,122,439,40,641v-101,248,-304,437,-640,437v-341,0,-556,-166,-656,-419v-67,-169,-73,-415,-7,-592v96,-256,301,-429,645,-429v313,0,501,156,618,362","w":1548},"P":{"d":"621,-1374v325,-3,558,89,557,416v-1,370,-295,478,-672,450r0,348v-1,27,21,43,45,45r129,11r0,104r-627,0r0,-104v59,-13,160,11,160,-56r0,-1054v-6,-67,-104,-44,-166,-56r0,-104r574,0xm506,-631v236,18,371,-85,366,-317v-3,-178,-78,-295,-251,-301r-115,0r0,618","w":1253},"Q":{"d":"889,-120v233,-104,294,-458,233,-780v-26,-138,-87,-253,-180,-322v-74,-55,-192,-60,-283,-24v-356,142,-326,985,-7,1126v70,31,168,31,237,0xm938,16v-1,225,254,263,469,205r0,109v-218,54,-539,85,-678,-50v-61,-59,-94,-146,-96,-260v-347,-69,-557,-306,-557,-716v0,-334,158,-552,400,-656v136,-58,334,-74,492,-28v253,73,426,247,484,508v100,454,-133,804,-514,888","w":1548},"R":{"d":"1184,-1034v0,232,-159,324,-357,358v188,31,263,166,307,339v36,145,103,264,308,233r0,104v-76,6,-134,31,-203,33v-299,6,-358,-219,-436,-434v-44,-121,-118,-214,-297,-201r0,442v4,66,100,43,158,56r0,104r-607,0r0,-104v58,-13,156,10,156,-56r0,-1054v-5,-64,-97,-45,-156,-56r0,-104r680,0v247,8,447,88,447,340xm506,-727v214,21,371,-52,371,-268v0,-206,-154,-268,-371,-256r0,524","w":1442},"S":{"d":"697,-1264v-154,-24,-308,31,-308,179v0,174,158,218,277,284v162,90,356,156,356,400v0,234,-153,351,-340,407v-200,58,-449,13,-606,-51r0,-375r162,0r34,248v0,12,18,30,27,31v153,70,426,35,422,-158v-3,-149,-114,-208,-217,-263r-121,-65v-136,-77,-279,-156,-279,-364v0,-217,136,-334,306,-389v190,-61,429,-9,575,55r0,336r-158,0r-34,-219v-19,-32,-52,-49,-96,-56","w":1098},"T":{"d":"1065,-999r-37,-228v-2,-16,-12,-24,-29,-24r-229,0r0,1091v5,67,106,43,166,56r0,104r-625,0r0,-104v51,-9,116,1,152,-24v10,-7,14,-19,14,-32r0,-1091r-229,0v-19,0,-29,8,-31,24r-37,228r-147,0r0,-375r1181,0r0,375r-149,0","w":1247},"U":{"d":"827,-137v219,0,303,-146,303,-367r0,-710v-4,-67,-101,-44,-161,-56r0,-104r471,0r0,104v-58,12,-154,-11,-154,56r0,694v1,285,-92,462,-312,524v-70,20,-153,29,-249,29v-355,1,-522,-197,-522,-553r0,-694v-5,-65,-99,-45,-158,-56r0,-104r606,0r0,104v-58,12,-155,-11,-155,56r0,710v0,247,94,367,331,367","w":1493},"V":{"d":"1296,-1253r-471,1286r-194,0r-479,-1284r-132,-19r0,-104r584,0r0,104r-115,15v-22,2,-27,25,-20,45r324,891r313,-893v4,-24,-3,-40,-29,-43r-110,-15r0,-104r458,0r0,104","w":1446},"W":{"d":"1833,-1253r-322,1286r-194,0r-320,-1065r-313,1065r-197,0r-342,-1286r-125,-17r0,-104r558,0r0,104r-121,13v-24,1,-24,23,-19,43r217,811r287,-971r221,0r297,993r205,-833v4,-23,-4,-41,-29,-43r-131,-13r0,-104r453,0r0,104","w":1978},"X":{"d":"739,0r0,-104r125,-9v22,-4,24,-27,10,-49r-229,-360r-276,358v-18,15,-7,47,12,49r123,11r0,104r-484,0r0,-104r132,-17r407,-534r-383,-596r-129,-19r0,-104r600,0r0,104r-108,10v-19,2,-24,29,-11,50r205,323r252,-325v18,-17,9,-49,-12,-50r-109,-8r0,-104r467,0r0,104r-129,19r-383,497r406,633r129,17r0,104r-615,0","w":1374},"Y":{"d":"1219,-1251r-379,657r0,434v5,69,109,42,170,56r0,104r-635,0r0,-104v53,-9,119,1,157,-24v10,-8,15,-19,15,-32r0,-377r-395,-714r-132,-19r0,-104r582,0r0,104r-108,10v-18,2,-22,29,-11,50r258,485r279,-487v13,-19,12,-48,-10,-50r-125,-8r0,-104r452,0r0,104","w":1358},"Z":{"d":"76,0r0,-121r702,-1128r-452,0v-17,0,-27,8,-29,24r-37,224r-149,0r0,-373r993,0r0,121r-701,1126r490,0v17,0,28,-7,31,-23r41,-253r149,0r0,403r-1038,0","w":1190},"[":{"d":"480,270r0,-1720r568,0r0,123r-314,0r0,1479r314,0r0,118r-568,0","w":1122},"\\":{"d":"852,190r-852,-1564r160,0r852,1564r-160,0","w":1012},"]":{"d":"74,270r0,-118r313,0r0,-1479r-313,0r0,-123r567,0r0,1720r-567,0","w":1206},"^":{"d":"526,-1128r-178,-195r-178,195r-170,0r227,-351r242,0r227,351r-170,0","w":696},"_":{"d":"0,340r0,-165r696,0r0,165r-696,0","w":696},"`":{"d":"51,-1309v-85,-50,-54,-194,66,-194v68,0,96,28,129,65r280,310r-143,0","w":766},"a":{"d":"692,-639v15,-164,-29,-270,-190,-270v-34,0,-62,3,-88,8r0,194r-211,0v-54,2,-92,-17,-92,-73v0,-146,158,-197,293,-227v154,-34,353,-24,450,47v75,56,110,145,109,284r0,526v1,60,79,48,135,54r0,96r-381,0r-27,-102v-112,73,-283,165,-460,108v-118,-38,-194,-170,-156,-331v39,-166,208,-200,376,-254v67,-21,148,-39,242,-60xm502,-145v73,0,135,-22,188,-45r0,-338v-111,23,-197,42,-266,89v-47,32,-68,71,-68,142v0,92,55,152,146,152","w":1133},"b":{"d":"459,-930v108,-69,298,-132,453,-63v152,68,247,213,247,432v0,270,-142,435,-345,517v-164,66,-409,37,-630,44r0,-1329r-143,0r0,-84r313,-103r105,0r0,586xm459,-115v274,20,403,-113,403,-385v0,-251,-145,-397,-403,-342r0,727","w":1225},"c":{"d":"678,-147v117,0,217,-55,287,-101r0,158v-110,54,-231,117,-404,115v-247,-3,-395,-130,-463,-312v-48,-129,-39,-291,10,-413v87,-220,323,-378,632,-308v110,25,200,84,208,209v9,148,-181,196,-282,111r0,-230v-158,-13,-234,88,-276,212v-15,48,-23,104,-23,167v0,226,92,392,311,392","w":1028},"d":{"d":"631,-164v63,0,115,-20,160,-39r0,-661v-43,-16,-90,-37,-146,-37v-206,0,-280,168,-280,377v0,203,68,360,266,360xm386,-988v119,-46,278,-41,405,-11r0,-330r-152,0r0,-84r319,-103r105,0r0,1366v1,59,76,49,131,54r0,96r-403,0r0,-119v-84,55,-184,144,-324,144v-211,0,-320,-134,-373,-302v-40,-132,-36,-314,12,-434v53,-133,148,-226,280,-277","w":1247},"e":{"d":"727,-623v5,-152,-26,-280,-168,-280v-151,0,-196,130,-201,280r369,0xm664,-145v154,0,264,-53,356,-115r0,164v-143,103,-450,166,-660,81v-180,-73,-294,-228,-294,-472v0,-253,122,-419,304,-497v64,-27,134,-40,212,-40v310,0,445,199,438,516r-672,0v3,220,100,363,316,363","w":1083},"f":{"d":"439,-1451v124,-89,421,-103,421,99v0,78,-65,112,-127,135r-203,-190v-72,92,-66,263,-65,432r223,0r0,131r-221,0r0,694v0,25,19,47,45,48r125,6r0,96r-594,0r0,-96v59,-8,150,13,150,-54r0,-694r-134,0r0,-82r131,-67v2,-172,74,-290,160,-385v26,-29,58,-50,89,-73","w":711},"g":{"d":"718,300v49,-38,111,-149,53,-221v-70,-86,-230,-98,-372,-112v-48,54,-86,161,-44,251v44,94,157,175,289,126v28,-10,51,-26,74,-44xm551,-440v122,0,158,-123,158,-248v0,-119,-40,-236,-154,-236v-126,0,-166,111,-166,238v0,126,39,246,162,246xm382,-1002v157,-45,348,-10,470,41r266,0r0,121r-180,0v39,67,57,195,18,278v-72,154,-241,223,-467,218v-38,24,-82,63,-55,123v193,16,354,41,480,101v85,41,143,96,143,202v0,193,-146,280,-291,342v-161,69,-429,63,-562,-27v-74,-50,-138,-123,-138,-241v0,-132,80,-210,204,-215v-15,-29,-26,-72,-26,-109v0,-97,60,-138,114,-190v-134,-39,-252,-130,-252,-308v0,-196,119,-291,276,-336","w":1137},"h":{"d":"817,-1024v198,0,281,129,281,322r0,552v1,59,76,49,131,54r0,96r-516,0r0,-96v48,-5,110,1,110,-54r0,-483v-2,-116,-49,-203,-172,-203v-69,1,-133,15,-192,27r0,659v0,54,65,50,116,54r0,96r-520,0r0,-96v53,-6,129,7,129,-54r0,-1179r-145,0r0,-84r313,-103r107,0r0,619v103,-58,206,-127,358,-127","w":1282},"i":{"d":"66,0r0,-96v56,-7,139,10,139,-54r0,-688r-131,0r0,-84r299,-102r104,0r0,874v3,61,87,48,146,54r0,96r-557,0xm346,-1516v95,0,160,62,160,158v0,96,-64,160,-160,160v-96,0,-158,-65,-158,-160v0,-95,63,-158,158,-158","w":682},"j":{"d":"147,383v51,-92,58,-231,58,-373r0,-848r-146,0r0,-84r314,-102r104,0r0,928v-2,246,-86,436,-253,524v-131,69,-408,74,-408,-111v0,-80,56,-127,131,-137xm340,-1516v95,0,158,63,158,158v0,95,-62,160,-158,160v-96,0,-160,-64,-160,-160v0,-96,65,-158,160,-158","w":664},"k":{"d":"780,0r0,-84r-225,-379r-96,0r0,313v0,58,73,49,127,54r0,96r-533,0r0,-96v54,-7,131,8,131,-54r0,-1179r-143,0r0,-84r313,-103r105,0r0,984r45,0r274,-328v14,-15,5,-33,-14,-35r-78,-8r0,-96r426,0r0,96r-135,16r-219,250r315,531r121,10r0,96r-414,0","w":1212},"l":{"d":"59,0r0,-96v57,-9,146,14,146,-54r0,-1179r-146,0r0,-84r314,-103r104,0r0,1366v1,65,89,46,148,54r0,96r-566,0","w":682},"m":{"d":"1397,-1024v194,0,282,126,282,313r0,561v1,54,67,50,119,54r0,96r-502,0r0,-96v48,-5,111,-1,111,-54r0,-493v-2,-118,-55,-193,-178,-193v-64,1,-117,16,-164,33r0,653v0,52,60,50,109,54r0,96r-492,0r0,-96v48,-5,109,0,109,-54r0,-493v-4,-116,-57,-192,-177,-193v-68,0,-123,12,-165,33r0,653v1,51,61,51,110,54r0,96r-504,0r0,-96v51,-6,121,5,121,-54r0,-686r-131,0r0,-84r301,-104r103,0r0,125v115,-83,350,-187,503,-73v35,25,54,55,80,87v107,-62,208,-139,365,-139","w":1855},"n":{"d":"817,-1024v214,-5,280,147,279,356r0,518v1,51,61,51,110,54r0,96r-504,0r0,-96v51,-6,121,5,121,-54r0,-481v-3,-118,-49,-205,-168,-205v-74,0,-140,12,-196,27r0,659v1,50,60,51,108,54r0,96r-501,0r0,-96v50,-6,118,4,118,-54r0,-686r-141,0r0,-84r309,-104r107,0r0,125v97,-60,209,-122,358,-125","w":1280},"o":{"d":"714,-128v137,-112,142,-453,69,-639v-30,-76,-82,-140,-185,-140v-218,0,-237,268,-222,495v11,162,54,322,224,322v47,0,85,-13,114,-38xm1098,-708v46,126,47,300,-2,424v-75,190,-242,309,-504,309v-252,0,-413,-119,-488,-303v-52,-126,-50,-318,2,-442v78,-187,242,-304,500,-304v261,0,420,123,492,316","w":1196},"p":{"d":"459,-111v70,31,175,33,241,-7v112,-67,168,-203,168,-380v0,-188,-71,-340,-258,-340v-58,0,-107,17,-151,31r0,696xm459,-895v104,-76,274,-173,444,-109v175,66,268,240,268,476v0,267,-129,434,-324,513v-107,43,-269,53,-388,19r0,295v0,67,94,44,153,53r0,97r-563,0r0,-97v56,-7,135,9,135,-53r0,-1135r-135,0r0,-84r303,-104r107,0r0,129","w":1237},"q":{"d":"365,-516v0,238,110,392,368,358r43,-4r0,-733v-23,-5,-52,-8,-82,-8v-236,1,-329,153,-329,387xm1051,299v-1,59,75,47,129,53r0,97r-562,0r0,-97v61,-9,157,16,158,-53r0,-379v-107,81,-322,150,-476,65v-144,-79,-234,-238,-234,-454v0,-394,266,-555,661,-555v112,0,223,13,324,25r0,1298","w":1235},"r":{"d":"660,-999v65,-42,152,-20,204,12r0,311r-139,0v-29,-42,-62,-82,-133,-82v-55,0,-99,17,-133,37r0,574v0,24,20,46,45,47r131,6r0,96r-586,0r0,-96v55,-7,135,10,135,-53r0,-689r-149,0r0,-84r317,-104r107,0r0,217v52,-65,127,-144,201,-192","w":885},"s":{"d":"194,-940v134,-111,454,-99,621,-29r0,283r-127,0r-22,-164v-66,-74,-326,-80,-314,62v10,113,125,144,207,190v96,54,206,97,263,186v45,70,24,191,-11,256v-66,120,-202,181,-381,181v-141,0,-260,-24,-364,-56r0,-311r129,0r24,188v42,30,121,58,191,58v101,0,176,-41,176,-131v0,-107,-108,-135,-190,-175v-117,-57,-246,-103,-300,-221v-30,-66,-21,-159,12,-219v20,-38,51,-69,86,-98","w":911},"t":{"d":"627,-133v48,0,93,-6,133,-14r0,102v-93,37,-199,69,-328,70v-173,3,-248,-79,-248,-252r0,-641r-135,0r0,-82r158,-94r110,-218r142,0r0,263r284,0r0,131r-284,0r0,557v-1,125,52,176,168,178","w":768},"u":{"d":"647,-162v65,0,118,-16,164,-35r0,-641r-129,0r0,-84r299,-102r104,0r0,874v2,59,81,49,138,54r0,96r-412,0r0,-113v-89,63,-185,134,-324,138v-218,7,-303,-117,-303,-334r0,-529r-133,0r0,-84r301,-102r107,0r0,635v-2,138,45,230,188,227","w":1270},"v":{"d":"1024,-889r-352,889r-203,0r-328,-891r-121,-12r0,-96r539,0r0,96v-47,10,-146,-13,-123,51r201,567r223,-567v13,-56,-67,-46,-117,-51r0,-96r398,0r0,96","w":1159},"w":{"d":"1589,-889r-274,889r-228,0r-223,-727r-235,727r-223,0r-265,-891r-121,-12r0,-96r525,0r0,96v-47,8,-137,-11,-119,51r160,563r229,-710r225,0r220,714r170,-567v7,-22,-9,-44,-29,-45r-90,-6r0,-96r393,0r0,96","w":1722},"x":{"d":"580,0r0,-96v35,-9,117,8,96,-43r-162,-221r-180,221v-13,15,-5,34,14,35r72,8r0,96r-400,0r0,-96r123,-17r293,-354r-303,-422r-108,-14r0,-96r503,0r0,96v-33,4,-103,1,-73,43r143,198r164,-198v11,-15,5,-36,-14,-37r-66,-6r0,-96r381,0r0,96r-115,14r-272,336r315,440r109,17r0,96r-520,0","w":1118},"y":{"d":"354,291v69,-66,120,-172,152,-273r-365,-909r-121,-12r0,-96r539,0r0,96v-48,9,-137,-15,-125,51r211,526r217,-526v13,-58,-70,-45,-121,-51r0,-96r400,0r0,96r-109,14r-396,969v-66,147,-143,298,-284,369v-139,70,-339,-25,-280,-191v17,-49,61,-79,108,-100","w":1159},"z":{"d":"281,-883v-20,-2,-37,25,-39,43r-15,158r-145,0r0,-317r829,0r0,114r-536,764r352,0v24,-5,41,-26,45,-49r27,-174r141,0r0,344r-874,0r0,-133r524,-750r-309,0","w":1006},"{":{"d":"864,250r-104,-2v-171,-6,-319,-49,-369,-179v-49,-125,-15,-320,-43,-470v-21,-110,-131,-148,-264,-136r0,-122v130,15,244,-23,264,-135v33,-188,-30,-456,111,-568v90,-71,245,-85,405,-84r0,113v-118,0,-214,32,-236,129v-36,166,22,410,-104,516v-57,48,-120,83,-211,90v206,21,312,160,301,400v-6,144,1,280,112,314v43,13,85,21,138,21r0,113","w":1014},"|":{"d":"320,528r0,-2158r175,0r0,2158r-175,0","w":815},"}":{"d":"930,-537v-133,-13,-244,25,-265,137v-35,185,29,455,-110,566v-90,72,-244,85,-405,84r0,-113v117,0,213,-33,236,-129v31,-125,-7,-305,42,-423v43,-104,144,-171,277,-183v-213,-14,-316,-160,-305,-400v7,-145,-1,-280,-113,-314v-42,-13,-85,-21,-137,-21r0,-113r104,2v171,6,319,50,368,180v48,125,14,321,43,470v22,110,132,150,265,135r0,122","w":1014},"~":{"d":"1137,-627v177,0,270,-99,393,-182r0,195v-116,78,-217,155,-395,155v-221,0,-350,-137,-572,-137v-159,0,-257,89,-387,184r0,-194v122,-93,233,-158,399,-158v225,0,344,137,562,137","w":1706},"\u2020":{"d":"543,270r-62,0r-106,-852r114,-360r46,0r114,360xm178,-864r-137,-125r137,-127r291,108r0,45xm535,-1028r-46,0r-112,-281r135,-157r129,157xm838,-864r-283,-99r0,-45r283,-108r145,127","w":1024},"\u2022":{"d":"215,-914v208,-78,385,109,309,310v-38,104,-175,176,-309,124v-103,-40,-180,-175,-125,-308v24,-58,67,-104,125,-126","w":614},"\u2026":{"d":"1706,-317v103,0,172,69,172,172v0,104,-69,170,-172,170v-104,0,-170,-68,-170,-170v0,-103,68,-172,170,-172xm342,-317v102,0,170,70,170,172v0,104,-69,170,-170,170v-105,0,-172,-67,-172,-170v0,-103,69,-172,172,-172xm1024,-317v102,0,170,70,170,172v0,104,-69,170,-170,170v-104,0,-170,-67,-170,-170v0,-103,68,-172,170,-172","w":2048},"\u2013":{"d":"0,-391r0,-203r1024,0r0,203r-1024,0","w":1024},"\u2014":{"d":"0,-391r0,-203r2048,0r0,203r-2048,0","w":2048},"\u201c":{"d":"723,-784v-204,7,-218,-282,-132,-422v64,-104,160,-173,281,-217r37,77v-114,52,-207,129,-200,302r122,0v19,28,41,61,41,106v0,95,-56,151,-149,154xm262,-784v-206,0,-219,-276,-134,-418v63,-105,160,-177,282,-219r34,75v-104,60,-210,133,-196,302r121,0v24,26,40,62,41,114v1,88,-62,146,-148,146","w":1030},"\u201d":{"d":"305,-1423v204,-6,218,284,131,423v-64,103,-161,173,-282,216r-33,-78v112,-52,203,-129,196,-301r-122,0v-21,-26,-41,-60,-41,-105v0,-95,56,-152,151,-155xm582,-862v105,-59,211,-133,198,-301r-123,0v-26,-24,-41,-63,-41,-115v0,-92,58,-142,150,-145v206,-7,220,277,134,419v-64,105,-161,177,-284,218","w":1028},"\u2018":{"d":"260,-784v-205,7,-217,-279,-132,-420v64,-105,161,-177,284,-219r30,77v-103,45,-208,141,-194,302r121,0v20,29,41,64,41,112v0,93,-58,144,-150,148","w":563},"\u2019":{"d":"303,-1423v203,-4,217,280,131,421v-63,104,-160,177,-282,218r-31,-78v108,-64,214,-127,194,-299r-120,0v-22,-27,-41,-64,-41,-113v0,-95,52,-147,149,-149","w":563},"\u2044":{"d":"162,190r-162,0r866,-1564r164,0","w":1030},"\u2039":{"d":"78,-406r0,-174r356,-299r0,183r-217,204r217,205r0,183","w":516},"\u203a":{"d":"438,-578r0,175r-356,299r0,-183r217,-205r-217,-204r0,-183","w":516},"\u2021":{"d":"186,-45r-145,-127r145,-125r283,96r0,47xm512,303r-129,-156r106,-280r46,0r112,280xm846,-45r-291,-109r0,-47r291,-96r137,125xm535,-219r-46,0r-114,-363r114,-360r46,0r114,360xm178,-864r-137,-125r137,-127r291,108r0,45xm535,-1028r-46,0r-112,-281r135,-157r129,157xm838,-864r-283,-99r0,-45r283,-108r145,127","w":1024},"\u201a":{"d":"303,-279v203,-5,217,280,131,421v-63,104,-160,177,-282,218r-31,-77v108,-64,214,-127,194,-299r-120,0v-22,-29,-41,-63,-41,-113v0,-95,52,-148,149,-150","w":563},"\u201e":{"d":"305,-285v204,-6,218,286,131,424v-65,103,-161,172,-282,215r-33,-78v112,-52,204,-129,196,-301r-122,0v-21,-27,-41,-58,-41,-104v0,-95,56,-152,151,-156xm582,276v106,-58,212,-132,198,-301r-123,0v-26,-24,-41,-62,-41,-114v0,-93,58,-143,150,-146v206,-7,220,277,134,419v-64,105,-161,177,-284,218","w":1028},"\u2030":{"d":"2214,-80v92,-72,84,-315,68,-473v-11,-107,-71,-219,-174,-157v-104,62,-101,317,-76,474v14,91,41,173,131,173v18,0,36,-5,51,-17xm2163,-823v251,0,350,173,350,428v0,255,-99,428,-350,428v-251,0,-348,-174,-348,-428v0,-255,97,-428,348,-428xm463,-662v94,-70,84,-316,68,-475v-11,-107,-71,-221,-174,-157v-125,78,-111,433,-47,577v25,56,94,98,153,55xm1412,-80v93,-72,82,-315,68,-473v-10,-107,-71,-219,-174,-157v-103,62,-101,318,-76,474v14,91,39,173,130,173v19,0,37,-5,52,-17xm412,-1407v251,0,350,173,350,428v0,255,-99,430,-350,430v-252,0,-353,-174,-353,-430v0,-256,101,-428,353,-428xm535,0r-148,0r850,-1374r149,0xm1360,-823v251,0,350,173,350,428v0,255,-99,428,-350,428v-251,0,-348,-174,-348,-428v0,-255,97,-428,348,-428","w":2572},"\u20b3":{"d":"364,-460r362,0r-33,-115r-297,0xm431,-700r225,0r-114,-392xm1009,-335v22,66,37,143,65,203v18,17,59,20,87,28r0,104r-458,0r0,-104r98,-15v10,-2,19,-20,15,-35r-53,-181r-435,0r-48,173v-10,57,71,46,117,58r0,104r-357,0r0,-104r93,-17r61,-214r-127,0r0,-125r163,0r33,-115r-196,0r0,-125r232,0r205,-707r189,0r208,707r232,0r0,125r-195,0r34,115r161,0r0,125r-124,0"},"\u217d":{"d":"678,-147v117,0,217,-55,287,-101r0,158v-110,54,-231,117,-404,115v-247,-3,-395,-130,-463,-312v-48,-129,-39,-291,10,-413v87,-220,323,-378,632,-308v110,25,200,84,208,209v9,148,-181,196,-282,111r0,-230v-158,-13,-234,88,-276,212v-15,48,-23,104,-23,167v0,226,92,392,311,392","w":1028},"\u2184":{"d":"470,25v-173,2,-293,-60,-404,-115r0,-158v70,46,171,101,287,101v219,0,311,-166,311,-392v0,-172,-58,-298,-166,-357v-43,-23,-80,-27,-133,-22r0,230v-35,26,-72,43,-137,43v-121,0,-180,-141,-120,-245v80,-137,357,-169,535,-94v187,80,322,245,322,505v0,233,-115,388,-283,463v-61,27,-132,41,-212,41","w":1028},"\u216d":{"d":"1229,-49v-159,64,-425,113,-633,58v-258,-69,-429,-239,-496,-497v-42,-162,-29,-353,32,-492v117,-272,372,-458,771,-422v119,11,223,50,326,81r0,348r-160,0r-45,-229v-21,-54,-104,-66,-172,-66v-240,0,-366,150,-424,344v-63,211,-24,503,76,640v77,105,185,184,364,184v69,0,132,-17,154,-66r45,-242r162,0r0,359","w":1303},"\u20ac":{"d":"762,-1407v156,0,248,43,368,86r0,348r-136,0r-39,-229v-16,-51,-86,-66,-146,-66v-246,0,-338,196,-376,421r393,0r-30,125r-374,0r1,80r355,0r-30,125r-313,0v43,220,134,417,388,417v61,0,114,-21,131,-66r38,-242r138,0r0,359v-144,69,-402,118,-582,42v-205,-87,-336,-266,-383,-510r-175,0r30,-125r131,0v-2,-26,-1,-53,-1,-80r-160,0r30,-125r142,0v44,-252,179,-436,387,-521v67,-26,138,-39,213,-39"},"\u20a1":{"d":"869,-1219v-22,-8,-52,-19,-80,-21r-273,997v19,23,42,43,68,60xm676,-1228v-248,72,-327,384,-280,706v8,54,24,105,43,152xm369,-114v-154,-114,-260,-312,-258,-573v2,-317,148,-531,367,-635v74,-34,153,-51,238,-52r41,-148r109,0r-42,155v28,3,56,10,82,16r47,-171r109,0r-55,202r84,29r0,332r-136,0r-19,-104r-253,925v83,22,220,19,232,-51r38,-231r138,0r0,342v-113,48,-275,92,-444,74r-58,213r-113,0r65,-236v-27,-8,-52,-17,-76,-29r-72,265r-113,0"},"\u20a0":{"d":"995,-104v3,0,14,-12,13,-17r21,-154r110,0r0,275r-711,0r0,-91r81,-8v13,-2,19,-9,19,-20r0,-311v-220,-10,-363,-119,-430,-285v-47,-116,-44,-281,2,-397v81,-203,299,-339,588,-280v52,11,108,32,158,48r0,255r-122,0r-31,-166v-14,-27,-69,-35,-106,-35v-247,0,-326,253,-279,506v23,123,96,211,220,237r0,-283v0,-11,-6,-19,-19,-20r-81,-8r0,-91r670,0r0,243r-108,0r-21,-124v-2,-11,-7,-16,-15,-16r-228,0r0,302r143,0v24,-17,21,-83,26,-119r95,0r0,346r-95,0v-4,-34,-5,-72,-13,-101v-3,-12,-8,-18,-13,-18r-143,0r0,332r269,0"},"\u20a2":{"d":"984,-752v31,-4,74,13,91,26r0,218r-97,0v-20,-29,-44,-58,-94,-58v-38,0,-70,12,-93,26r0,402v0,18,15,37,34,33v41,-8,82,-23,89,-61r38,-192r138,0r0,309v-154,75,-435,121,-615,29v-222,-113,-365,-339,-365,-668v0,-330,145,-557,371,-666v74,-36,155,-53,241,-53v156,0,248,43,368,86r0,348r-136,0r-39,-229v-16,-51,-86,-66,-146,-66v-217,0,-315,159,-360,344v-68,281,-14,636,165,758v17,-5,25,-15,25,-32r0,-422r-104,0r0,-59r221,-73r75,0r0,152v48,-55,105,-141,193,-152"},"\u20b5":{"d":"643,-1217v-220,86,-296,393,-246,700v27,169,104,307,246,365r0,-1065xm1091,-78v-87,38,-200,71,-324,77r0,207r-124,0r0,-210v-258,-37,-418,-199,-493,-424v-52,-155,-52,-364,1,-518v77,-223,236,-384,492,-423r0,-151r124,0r0,147v128,6,222,48,324,82r0,332r-136,0r-39,-219v-18,-49,-87,-57,-149,-63r0,1115v69,0,127,-16,148,-63r38,-231r138,0r0,342"},"\u2185":{"d":"1019,11v-128,25,-295,33,-423,-2v-257,-70,-429,-239,-496,-497v-42,-162,-29,-353,32,-492v117,-272,372,-458,771,-422v119,11,223,50,326,81r0,348r-160,0r-45,-229v-21,-54,-104,-66,-172,-66v-240,0,-366,150,-424,344v-63,211,-24,503,76,640v77,105,185,184,364,184v69,0,132,-17,154,-66r45,-242r162,0r0,807r-210,70r0,-458","w":1303},"\u2183":{"d":"76,-1321v141,-45,253,-89,432,-86v340,5,559,180,666,427v74,170,74,409,2,582v-104,253,-321,431,-666,431v-168,0,-318,-37,-434,-82r0,-359r160,0r47,242v37,87,214,74,305,42v214,-75,317,-277,317,-560v0,-263,-91,-451,-264,-542v-95,-50,-242,-52,-336,-9v-9,4,-25,24,-26,33r-46,229r-157,0r0,-348","w":1303},"\u217e":{"d":"631,-164v63,0,115,-20,160,-39r0,-661v-43,-16,-90,-37,-146,-37v-206,0,-280,168,-280,377v0,203,68,360,266,360xm386,-988v119,-46,278,-41,405,-11r0,-330r-152,0r0,-84r319,-103r105,0r0,1366v1,59,76,49,131,54r0,96r-403,0r0,-119v-84,55,-184,144,-324,144v-211,0,-320,-134,-373,-302v-40,-132,-36,-314,12,-434v53,-133,148,-226,280,-277","w":1247},"\u20ab":{"d":"188,277r0,-131r911,1r0,131xm631,-164v63,0,115,-20,160,-39r0,-667v-43,-13,-91,-31,-146,-31v-206,0,-280,168,-280,377v0,203,68,360,266,360xm386,-988v117,-45,273,-40,405,-18r0,-90r-297,0r0,-129r297,0r0,-104r-152,0r0,-84r319,-103r105,0r0,291r184,0r0,129r-184,0r0,946v1,59,76,49,131,54r0,96r-403,0r0,-119v-84,55,-184,144,-324,144v-211,0,-320,-134,-373,-302v-40,-132,-36,-314,12,-434v53,-133,148,-226,280,-277","w":1247},"\u216e":{"d":"1077,-680v-1,-341,-113,-568,-442,-575r-129,0r0,1134v132,-4,262,2,352,-52v148,-90,220,-264,219,-507xm1359,-976v67,166,59,420,-3,582v-98,254,-318,394,-664,394r-639,0r0,-104v59,-13,160,11,160,-56r0,-1054v-5,-65,-100,-44,-160,-56r0,-104r627,0v351,2,577,147,679,398","w":1483},"\u2181":{"d":"1359,-976v67,166,59,420,-3,582v-98,254,-318,394,-664,394r-639,0r0,-104v59,-13,160,11,160,-56r0,-1054v-5,-65,-100,-44,-160,-56r0,-104r627,0v351,2,577,147,679,398xm1077,-680v-1,-341,-113,-568,-442,-575r-129,0r0,207v247,-21,404,112,404,351v0,181,-95,298,-227,353v-55,23,-110,31,-177,27r0,196v132,-4,262,2,352,-52v148,-90,220,-264,219,-507xm506,-390v140,-7,190,-120,193,-267v3,-148,-67,-257,-193,-271r0,538","w":1483},"\u2180":{"d":"848,-1255v-329,7,-442,234,-442,575v0,286,89,483,310,543v79,21,170,11,261,16r0,-1134r-129,0xm1841,-680v-1,-341,-113,-568,-442,-575r-129,0r0,1134v132,-4,262,2,352,-52v148,-90,220,-264,219,-507xm791,0v-459,-6,-715,-240,-715,-702v0,-332,164,-532,416,-623v90,-33,194,-49,311,-49r641,0v351,2,577,147,679,398v67,166,59,420,-3,582v-98,254,-318,394,-664,394r-665,0","w":2247},"\u2182":{"d":"791,0v-459,-6,-715,-240,-715,-702v0,-332,164,-532,416,-623v90,-33,194,-49,311,-49r641,0v351,2,577,147,679,398v67,166,59,420,-3,582v-98,254,-318,394,-664,394r-665,0xm1841,-680v-1,-341,-113,-568,-442,-575r-129,0r0,207v247,-21,404,112,404,351v0,181,-95,298,-227,353v-55,23,-110,31,-177,27r0,196v132,-4,262,2,352,-52v148,-90,220,-264,219,-507xm848,-1255v-329,7,-442,234,-442,575v0,286,89,483,310,543v79,21,170,11,261,16r0,-196v-194,9,-315,-86,-375,-225v-60,-136,-17,-323,61,-403v67,-69,175,-119,314,-103r0,-207r-129,0xm977,-928v-126,14,-196,124,-193,271v3,147,53,260,193,267r0,-538xm1270,-390v140,-7,190,-120,193,-267v3,-148,-67,-257,-193,-271r0,538","w":2247},"\u2187":{"d":"1359,-976v67,166,59,420,-3,582v-98,254,-318,394,-664,394r-639,0r0,-104v59,-13,160,11,160,-56r0,-1054v-5,-65,-100,-44,-160,-56r0,-104r627,0v351,2,577,147,679,398xm1003,-692v0,340,-174,478,-497,489r0,82v132,-4,262,2,352,-52v148,-90,220,-264,219,-507v-1,-341,-113,-568,-442,-575r-129,0r0,64v336,2,497,160,497,499xm770,-697v-3,187,-75,310,-264,300r0,76v231,-5,337,-111,337,-349v0,-170,-30,-298,-153,-348v-46,-19,-106,-31,-184,-30r0,80v185,-22,267,81,264,271xm506,-470v130,10,108,-172,98,-280v-6,-62,-39,-89,-98,-98r0,378","w":1483},"\u2188":{"d":"791,0v-459,-6,-715,-240,-715,-702v0,-332,164,-532,416,-623v90,-33,194,-49,311,-49r641,0v351,2,577,147,679,398v67,166,59,420,-3,582v-98,254,-318,394,-664,394r-665,0xm1767,-692v0,340,-174,478,-497,489r0,82v132,-4,262,2,352,-52v148,-90,220,-264,219,-507v-1,-341,-113,-568,-442,-575r-129,0r0,64v336,2,497,160,497,499xm848,-1255v-329,7,-442,234,-442,575v0,286,89,483,310,543v79,21,170,11,261,16r0,-82v-323,-11,-497,-149,-497,-489v0,-339,161,-497,497,-499r0,-64r-129,0xm713,-697v-2,-191,77,-293,264,-271r0,-80v-251,-8,-337,124,-337,378v0,238,105,344,337,349r0,-76v-189,10,-262,-113,-264,-300xm1534,-697v-3,187,-75,310,-264,300r0,76v231,-5,337,-111,337,-349v0,-170,-30,-298,-153,-348v-46,-19,-106,-31,-184,-30r0,80v185,-22,267,81,264,271xm977,-848v-91,11,-105,83,-104,191v0,73,8,124,32,161v16,23,38,26,72,26r0,-378xm1270,-470v130,10,108,-172,98,-280v-6,-62,-39,-89,-98,-98r0,378","w":2247},"\u20af":{"d":"340,-180v-30,-39,-53,-86,-108,-91v-133,-13,-156,244,-27,244v81,0,108,-81,135,-153xm1288,-280v-73,0,-127,43,-127,115v0,72,54,115,127,115v73,0,127,-43,127,-115v0,-72,-54,-115,-127,-115xm1134,-45v-38,127,-63,234,-115,354r-106,-4v68,-151,97,-327,150,-492v33,-102,110,-156,247,-152v111,3,195,56,197,168v3,119,-90,183,-215,180v-65,-1,-134,-12,-158,-54xm619,-29v244,0,290,-225,290,-475v0,-155,-76,-255,-192,-303v-130,170,-183,435,-280,635v50,57,84,143,182,143xm161,-744v122,-98,285,-167,502,-144v79,-83,173,-149,297,-184r37,47v-94,35,-167,90,-230,158v161,51,291,152,291,358v0,322,-132,527,-455,527v-105,0,-160,-57,-207,-117v-49,71,-95,112,-201,112v-86,0,-145,-61,-145,-153v0,-113,77,-171,192,-171v54,0,91,27,122,55v53,-219,127,-421,248,-573v-177,-9,-320,47,-417,127","w":1557},"\u20a3":{"d":"537,-525r0,365v-1,27,21,43,45,45r133,11r0,104r-629,0r0,-104v58,-13,158,10,158,-56r0,-365r-164,0r0,-125r164,0r0,-115r-164,0r0,-125r164,0r0,-324v-5,-66,-103,-44,-164,-56r0,-104r1041,0r0,350r-148,0r-29,-186v-2,-19,-16,-39,-36,-39r-371,0r0,359r369,0r0,125r-369,0r0,115r369,0r0,125r-369,0"},"\u20b2":{"d":"553,-1207v-159,84,-227,271,-229,510v-2,241,74,433,229,512r0,-1022xm1024,-91v-93,48,-207,85,-347,91r0,206r-124,0r0,-213v-236,-43,-379,-205,-446,-423v-48,-152,-48,-366,-1,-518v67,-218,211,-373,447,-417r0,-155r124,0r0,146v139,4,254,35,349,77r0,338r-128,0r-33,-211v-22,-64,-112,-76,-188,-72r0,1094v43,1,74,5,121,2r0,-381v0,-33,-25,-53,-57,-53r0,-100r384,0r0,100v-41,10,-100,1,-101,53r0,436"},"\u2170":{"d":"66,0r0,-96v56,-7,139,10,139,-54r0,-688r-131,0r0,-84r299,-102r104,0r0,874v3,61,87,48,146,54r0,96r-557,0xm346,-1516v95,0,160,62,160,158v0,96,-64,160,-160,160v-96,0,-158,-65,-158,-160v0,-95,63,-158,158,-158","w":682},"\u2171":{"d":"66,0r0,-96v56,-7,139,10,139,-54r0,-688r-131,0r0,-84r299,-102r104,0r0,874v3,61,87,48,146,54r0,96r-557,0xm346,-1516v95,0,160,62,160,158v0,96,-64,160,-160,160v-96,0,-158,-65,-158,-160v0,-95,63,-158,158,-158xm748,0r0,-96v56,-7,139,10,139,-54r0,-688r-131,0r0,-84r299,-102r104,0r0,874v3,61,87,48,146,54r0,96r-557,0xm1028,-1516v95,0,160,62,160,158v0,96,-64,160,-160,160v-96,0,-158,-65,-158,-160v0,-95,63,-158,158,-158","w":1364},"\u2172":{"d":"66,0r0,-96v56,-7,139,10,139,-54r0,-688r-131,0r0,-84r299,-102r104,0r0,874v3,61,87,48,146,54r0,96r-557,0xm346,-1516v95,0,160,62,160,158v0,96,-64,160,-160,160v-96,0,-158,-65,-158,-160v0,-95,63,-158,158,-158xm748,0r0,-96v56,-7,139,10,139,-54r0,-688r-131,0r0,-84r299,-102r104,0r0,874v3,61,87,48,146,54r0,96r-557,0xm1028,-1516v95,0,160,62,160,158v0,96,-64,160,-160,160v-96,0,-158,-65,-158,-160v0,-95,63,-158,158,-158xm1430,0r0,-96v56,-7,139,10,139,-54r0,-688r-131,0r0,-84r299,-102r104,0r0,874v3,61,87,48,146,54r0,96r-557,0xm1710,-1516v95,0,160,62,160,158v0,96,-64,160,-160,160v-96,0,-158,-65,-158,-160v0,-95,63,-158,158,-158","w":2046},"\u2173":{"d":"66,0r0,-96v56,-7,139,10,139,-54r0,-688r-131,0r0,-84r299,-102r104,0r0,874v3,61,87,48,146,54r0,96r-557,0xm346,-1516v95,0,160,62,160,158v0,96,-64,160,-160,160v-96,0,-158,-65,-158,-160v0,-95,63,-158,158,-158xm1706,-889r-352,889r-203,0r-328,-891r-121,-12r0,-96r539,0r0,96v-47,10,-146,-13,-123,51r201,567r223,-567v13,-56,-67,-46,-117,-51r0,-96r398,0r0,96","w":1841},"\u2178":{"d":"66,0r0,-96v56,-7,139,10,139,-54r0,-688r-131,0r0,-84r299,-102r104,0r0,874v3,61,87,48,146,54r0,96r-557,0xm346,-1516v95,0,160,62,160,158v0,96,-64,160,-160,160v-96,0,-158,-65,-158,-160v0,-95,63,-158,158,-158xm1262,0r0,-96v35,-9,117,8,96,-43r-162,-221r-180,221v-13,15,-5,34,14,35r72,8r0,96r-400,0r0,-96r123,-17r293,-354r-303,-422r-108,-14r0,-96r503,0r0,96v-33,4,-103,1,-73,43r143,198r164,-198v11,-15,5,-36,-14,-37r-66,-6r0,-96r381,0r0,96r-115,14r-272,336r315,440r109,17r0,96r-520,0","w":1800},"\u2160":{"d":"47,0r0,-104v53,-9,123,2,159,-24v9,-7,13,-19,13,-32r0,-1054v-5,-70,-110,-43,-172,-56r0,-104r639,0r0,104v-63,13,-174,-15,-174,56r0,1054v8,67,111,43,174,56r0,104r-639,0","w":735},"\u2161":{"d":"47,0r0,-104v53,-9,123,2,159,-24v9,-7,13,-19,13,-32r0,-1054v-5,-70,-110,-43,-172,-56r0,-104r639,0r0,104v-63,13,-174,-15,-174,56r0,1054v8,67,111,43,174,56r0,104r-639,0xm782,0r0,-104v53,-9,123,2,159,-24v9,-7,13,-19,13,-32r0,-1054v-5,-70,-110,-43,-172,-56r0,-104r639,0r0,104v-63,13,-174,-15,-174,56r0,1054v8,67,111,43,174,56r0,104r-639,0","w":1470},"\u2162":{"d":"47,0r0,-104v53,-9,123,2,159,-24v9,-7,13,-19,13,-32r0,-1054v-5,-70,-110,-43,-172,-56r0,-104r639,0r0,104v-63,13,-174,-15,-174,56r0,1054v8,67,111,43,174,56r0,104r-639,0xm782,0r0,-104v53,-9,123,2,159,-24v9,-7,13,-19,13,-32r0,-1054v-5,-70,-110,-43,-172,-56r0,-104r639,0r0,104v-63,13,-174,-15,-174,56r0,1054v8,67,111,43,174,56r0,104r-639,0xm1517,0r0,-104v53,-9,123,2,159,-24v9,-7,13,-19,13,-32r0,-1054v-5,-70,-110,-43,-172,-56r0,-104r639,0r0,104v-63,13,-174,-15,-174,56r0,1054v8,67,111,43,174,56r0,104r-639,0","w":2205},"\u2163":{"d":"47,0r0,-104v53,-9,123,2,159,-24v9,-7,13,-19,13,-32r0,-1054v-5,-70,-110,-43,-172,-56r0,-104r639,0r0,104v-63,13,-174,-15,-174,56r0,1054v8,67,111,43,174,56r0,104r-639,0xm2031,-1253r-471,1286r-194,0r-479,-1284r-132,-19r0,-104r584,0r0,104r-115,15v-22,2,-27,25,-20,45r324,891r313,-893v4,-24,-3,-40,-29,-43r-110,-15r0,-104r458,0r0,104","w":2181},"\u2168":{"d":"47,0r0,-104v53,-9,123,2,159,-24v9,-7,13,-19,13,-32r0,-1054v-5,-70,-110,-43,-172,-56r0,-104r639,0r0,104v-63,13,-174,-15,-174,56r0,1054v8,67,111,43,174,56r0,104r-639,0xm1474,0r0,-104r125,-9v22,-4,24,-27,10,-49r-229,-360r-276,358v-18,15,-7,47,12,49r123,11r0,104r-484,0r0,-104r132,-17r407,-534r-383,-596r-129,-19r0,-104r600,0r0,104r-108,10v-19,2,-24,29,-11,50r205,323r252,-325v18,-17,9,-49,-12,-50r-109,-8r0,-104r467,0r0,104r-129,19r-383,497r406,633r129,17r0,104r-615,0","w":2109},"\u20ad":{"d":"788,-600r257,483r124,13r0,104r-378,0r0,-76r-284,-524r-95,0r0,440v0,61,79,45,130,56r0,104r-510,0r0,-104v50,-12,131,8,131,-56r0,-440r-131,0r0,-130r131,0r0,-484v0,-62,-79,-46,-131,-56r0,-104r510,0r0,104v-51,11,-130,-8,-130,56r0,484r71,0r352,-505v5,-8,4,-27,-9,-25r-99,-10r0,-104r399,0r0,104r-122,13r-324,454r39,73r407,0r0,130r-338,0"},"\u217c":{"d":"59,0r0,-96v57,-9,146,14,146,-54r0,-1179r-146,0r0,-84r314,-103r104,0r0,1366v1,65,89,46,148,54r0,96r-566,0","w":682},"\u20b0":{"d":"471,-1323v-50,0,-56,61,-56,118v0,109,29,197,64,277v25,-100,49,-207,47,-319v-1,-54,-10,-76,-55,-76xm476,-69v166,-40,157,-296,96,-449v-28,-71,-61,-138,-98,-200r-59,181v-20,60,-38,120,-54,181r-77,-197r-100,197r-92,0r207,-399r73,184r66,-209r-59,-98v-49,-87,-100,-176,-100,-304v0,-120,62,-210,187,-210v86,0,120,52,120,141v0,146,-35,276,-70,399v87,180,231,326,231,581v0,162,-117,215,-261,238","w":910},"\u20a4":{"d":"860,-1285v-130,-32,-233,39,-266,139v-24,71,-35,162,-35,256r353,0r0,125r-352,0r5,115r347,0r0,125r-350,0v-18,161,-104,248,-216,324r135,-16r633,0r0,217r-1028,0r0,-156v73,-17,134,-48,166,-114v31,-64,47,-149,46,-255r-212,0r0,-125r209,0r-6,-115r-203,0r0,-125r203,0v18,-306,152,-517,473,-517v136,0,258,49,318,134v23,31,34,69,34,113v2,126,-145,171,-254,125r0,-250"},"\u216c":{"d":"55,0r0,-104v58,-13,158,12,158,-56r0,-1054v-3,-67,-99,-44,-158,-56r0,-104r611,0r0,104v-59,13,-160,-13,-160,56r0,1089r356,0v29,-2,46,-23,49,-47r27,-236r164,0r0,408r-1047,0","w":1135},"\u217f":{"d":"1397,-1024v194,0,282,126,282,313r0,561v1,54,67,50,119,54r0,96r-502,0r0,-96v48,-5,111,-1,111,-54r0,-493v-2,-118,-55,-193,-178,-193v-64,1,-117,16,-164,33r0,653v0,52,60,50,109,54r0,96r-492,0r0,-96v48,-5,109,0,109,-54r0,-493v-4,-116,-57,-192,-177,-193v-68,0,-123,12,-165,33r0,653v1,51,61,51,110,54r0,96r-504,0r0,-96v51,-6,121,5,121,-54r0,-686r-131,0r0,-84r301,-104r103,0r0,125v115,-83,350,-187,503,-73v35,25,54,55,80,87v107,-62,208,-139,365,-139","w":1855},"\u20a5":{"d":"838,-818v-43,-36,-116,-9,-151,15r0,197xm416,-836v-45,0,-76,14,-99,33r0,653v0,19,5,33,16,42r190,-267r0,-268v-4,-93,-17,-193,-107,-193xm896,-1024v30,-3,53,10,72,22r122,-171r117,0r-179,251v25,57,37,132,37,211r0,561v-1,22,10,46,27,48r45,6r0,96r-291,0r0,-96v26,-5,47,-21,46,-54r-2,-533v-1,-13,-2,-26,-5,-38r-198,278r0,293v-1,33,19,50,45,54r0,96r-255,0r0,-96v26,-5,47,-21,46,-54r0,-63r-258,362r-115,0r106,-149r-185,0r0,-96v38,-3,73,-6,73,-54r0,-686r-79,0r0,-84r191,-104r61,0r0,125v54,-54,107,-125,201,-125v90,0,119,75,149,139v62,-57,127,-129,229,-139"},"\u216f":{"d":"1196,0r0,-104v55,-12,145,8,145,-56r0,-1075r-411,1235r-158,0r-403,-1227r0,1067v5,64,97,44,155,56r0,104r-473,0r0,-104v59,-13,162,11,162,-56r0,-1054v-5,-66,-102,-44,-162,-56r0,-104r588,0r0,57r289,877r286,-877r0,-57r582,0r0,104v-60,13,-162,-13,-162,56r0,1054v5,66,103,43,162,56r0,104r-600,0","w":1849},"\u20a6":{"d":"915,-395r0,-155r-79,0xm288,-915r85,0r-85,-168r0,168xm772,-675r143,0r0,-115r-202,0xm288,-675r207,0r-58,-115r-149,0r0,115xm1040,-550r0,550r-200,0r-281,-550r-271,0r0,390v0,61,77,45,127,56r0,104r-378,0r0,-104v49,-12,126,7,126,-56r0,-390r-124,0r0,-125r124,0r0,-115r-124,0r0,-125r124,0r0,-299v1,-61,-74,-46,-124,-56r0,-104r404,0r0,55r206,404r266,0r0,-299v0,-62,-79,-46,-131,-56r0,-104r380,0r0,104v-49,10,-124,-7,-124,56r0,299r124,0r0,125r-124,0r0,115r124,0r0,125r-124,0"},"\u20b1":{"d":"569,-1374v243,-1,424,63,479,254r154,0r0,125r-133,0v2,39,0,80,-4,115r137,0r0,125r-168,0v-75,197,-294,273,-569,247r0,348v3,67,99,43,157,56r0,104r-564,0r0,-104v54,-12,144,9,144,-56r0,-595r-150,0r0,-125r150,0r0,-115r-150,0r0,-125r150,0v-3,-57,18,-134,-43,-140r-107,-10r0,-104r517,0xm791,-880v5,-36,4,-77,2,-115r-328,0r0,115r326,0xm763,-1120v-34,-75,-95,-129,-194,-129r-104,0r0,129r298,0xm465,-631v141,11,243,-27,291,-124r-291,0r0,124"},"\u20a7":{"d":"2104,-850v-63,-78,-295,-75,-282,62v10,109,110,143,186,190v87,54,186,98,236,186v16,27,24,58,24,93v-3,234,-150,344,-376,344v-112,0,-214,-20,-298,-46v-60,20,-150,46,-235,46v-165,0,-223,-88,-223,-252r0,-641r-82,0v-36,282,-276,390,-599,360r0,348v3,67,99,43,157,56r0,104r-564,0r0,-104v54,-12,144,9,144,-56r0,-1054v-3,-65,-93,-45,-150,-56r0,-104r517,0v300,-4,494,101,500,394r97,-64r99,-218r128,0r0,263r196,0r0,131r-196,0r0,557v-3,132,54,186,181,177r0,-208r116,0r22,188v37,29,109,54,172,58v122,9,204,-114,134,-204v-120,-156,-433,-144,-433,-413v0,-210,156,-307,370,-311v118,-2,212,23,293,55r0,283r-114,0xm455,-631v226,19,333,-97,330,-317v-3,-171,-63,-293,-226,-301r-104,0r0,618","w":2315},"\u20a8":{"d":"1062,-1034v0,222,-135,323,-322,358v176,34,236,173,276,339v33,139,85,263,278,233r0,104v-68,6,-121,32,-183,33v-279,4,-322,-227,-392,-434v-40,-117,-100,-213,-268,-201r0,442v2,64,89,44,143,56r0,104r-547,0r0,-104v53,-12,141,8,141,-56r0,-1054v-2,-62,-86,-45,-141,-56r0,-104r612,0v234,8,403,99,403,340xm1895,-850v-63,-78,-295,-75,-282,62v10,109,110,143,186,190v87,54,187,98,237,186v16,27,23,58,23,93v-3,234,-150,344,-376,344v-128,0,-235,-24,-328,-56r0,-311r116,0r22,188v37,29,109,54,172,58v122,9,204,-114,134,-204v-120,-156,-433,-144,-433,-413v0,-210,156,-307,370,-311v119,-2,213,22,293,55r0,283r-114,0xm785,-995v0,-198,-129,-269,-334,-256r0,524v204,23,334,-62,334,-268","w":2121},"\u20b4":{"d":"1045,-1049v1,63,-15,112,-38,154r95,0r0,125r-198,0v-46,42,-100,77,-151,115r339,0r0,125r-515,0v-63,51,-127,106,-127,217v0,133,100,207,231,207v57,0,104,-17,144,-35v8,-2,25,-20,26,-31r37,-228r146,0r-12,355v-101,42,-218,78,-361,78v-272,0,-479,-85,-482,-358v0,-85,24,-150,57,-205r-137,0r0,-125r250,0v52,-44,109,-78,167,-115r-407,0r0,-125r587,0v52,-49,92,-105,94,-200v3,-149,-161,-207,-296,-158v-24,9,-42,24,-53,45r-38,199r-142,0r11,-316v96,-44,210,-82,350,-82v249,0,419,107,423,358"},"\u20ae":{"d":"1021,-999r-35,-228v-2,-16,-11,-24,-28,-24r-218,0r0,349r151,-102r62,90r-213,144r0,98r157,-106r59,91r-216,147r0,380v4,66,100,43,158,56r0,104r-594,0r0,-104v58,-13,158,11,158,-56r0,-192r-162,109r-55,-95r217,-146r0,-97r-165,111r-58,-94r223,-150r0,-537r-217,0v-18,0,-30,8,-30,24r-5,228r-170,0r0,-375r1122,0r0,375r-141,0"},"\u2174":{"d":"1024,-889r-352,889r-203,0r-328,-891r-121,-12r0,-96r539,0r0,96v-47,10,-146,-13,-123,51r201,567r223,-567v13,-56,-67,-46,-117,-51r0,-96r398,0r0,96","w":1159},"\u2175":{"d":"1024,-889r-352,889r-203,0r-328,-891r-121,-12r0,-96r539,0r0,96v-47,10,-146,-13,-123,51r201,567r223,-567v13,-56,-67,-46,-117,-51r0,-96r398,0r0,96xm1225,0r0,-96v56,-7,139,10,139,-54r0,-688r-131,0r0,-84r299,-102r104,0r0,874v3,61,87,48,146,54r0,96r-557,0xm1505,-1516v95,0,160,62,160,158v0,96,-64,160,-160,160v-96,0,-158,-65,-158,-160v0,-95,63,-158,158,-158","w":1841},"\u2176":{"d":"1024,-889r-352,889r-203,0r-328,-891r-121,-12r0,-96r539,0r0,96v-47,10,-146,-13,-123,51r201,567r223,-567v13,-56,-67,-46,-117,-51r0,-96r398,0r0,96xm1225,0r0,-96v56,-7,139,10,139,-54r0,-688r-131,0r0,-84r299,-102r104,0r0,874v3,61,87,48,146,54r0,96r-557,0xm1505,-1516v95,0,160,62,160,158v0,96,-64,160,-160,160v-96,0,-158,-65,-158,-160v0,-95,63,-158,158,-158xm1907,0r0,-96v56,-7,139,10,139,-54r0,-688r-131,0r0,-84r299,-102r104,0r0,874v3,61,87,48,146,54r0,96r-557,0xm2187,-1516v95,0,160,62,160,158v0,96,-64,160,-160,160v-96,0,-158,-65,-158,-160v0,-95,63,-158,158,-158","w":2523},"\u2177":{"d":"1024,-889r-352,889r-203,0r-328,-891r-121,-12r0,-96r539,0r0,96v-47,10,-146,-13,-123,51r201,567r223,-567v13,-56,-67,-46,-117,-51r0,-96r398,0r0,96xm1225,0r0,-96v56,-7,139,10,139,-54r0,-688r-131,0r0,-84r299,-102r104,0r0,874v3,61,87,48,146,54r0,96r-557,0xm1505,-1516v95,0,160,62,160,158v0,96,-64,160,-160,160v-96,0,-158,-65,-158,-160v0,-95,63,-158,158,-158xm1907,0r0,-96v56,-7,139,10,139,-54r0,-688r-131,0r0,-84r299,-102r104,0r0,874v3,61,87,48,146,54r0,96r-557,0xm2187,-1516v95,0,160,62,160,158v0,96,-64,160,-160,160v-96,0,-158,-65,-158,-160v0,-95,63,-158,158,-158xm2589,0r0,-96v56,-7,139,10,139,-54r0,-688r-131,0r0,-84r299,-102r104,0r0,874v3,61,87,48,146,54r0,96r-557,0xm2869,-1516v95,0,160,62,160,158v0,96,-64,160,-160,160v-96,0,-158,-65,-158,-160v0,-95,63,-158,158,-158","w":3205},"\u2164":{"d":"1296,-1253r-471,1286r-194,0r-479,-1284r-132,-19r0,-104r584,0r0,104r-115,15v-22,2,-27,25,-20,45r324,891r313,-893v4,-24,-3,-40,-29,-43r-110,-15r0,-104r458,0r0,104","w":1446},"\u2165":{"d":"1296,-1253r-471,1286r-194,0r-479,-1284r-132,-19r0,-104r584,0r0,104r-115,15v-22,2,-27,25,-20,45r324,891r313,-893v4,-24,-3,-40,-29,-43r-110,-15r0,-104r458,0r0,104xm1493,0r0,-104v53,-9,123,2,159,-24v9,-7,13,-19,13,-32r0,-1054v-5,-70,-110,-43,-172,-56r0,-104r639,0r0,104v-63,13,-174,-15,-174,56r0,1054v8,67,111,43,174,56r0,104r-639,0","w":2181},"\u2166":{"d":"1296,-1253r-471,1286r-194,0r-479,-1284r-132,-19r0,-104r584,0r0,104r-115,15v-22,2,-27,25,-20,45r324,891r313,-893v4,-24,-3,-40,-29,-43r-110,-15r0,-104r458,0r0,104xm1493,0r0,-104v53,-9,123,2,159,-24v9,-7,13,-19,13,-32r0,-1054v-5,-70,-110,-43,-172,-56r0,-104r639,0r0,104v-63,13,-174,-15,-174,56r0,1054v8,67,111,43,174,56r0,104r-639,0xm2228,0r0,-104v53,-9,123,2,159,-24v9,-7,13,-19,13,-32r0,-1054v-5,-70,-110,-43,-172,-56r0,-104r639,0r0,104v-63,13,-174,-15,-174,56r0,1054v8,67,111,43,174,56r0,104r-639,0","w":2916},"\u2167":{"d":"1296,-1253r-471,1286r-194,0r-479,-1284r-132,-19r0,-104r584,0r0,104r-115,15v-22,2,-27,25,-20,45r324,891r313,-893v4,-24,-3,-40,-29,-43r-110,-15r0,-104r458,0r0,104xm1493,0r0,-104v53,-9,123,2,159,-24v9,-7,13,-19,13,-32r0,-1054v-5,-70,-110,-43,-172,-56r0,-104r639,0r0,104v-63,13,-174,-15,-174,56r0,1054v8,67,111,43,174,56r0,104r-639,0xm2228,0r0,-104v53,-9,123,2,159,-24v9,-7,13,-19,13,-32r0,-1054v-5,-70,-110,-43,-172,-56r0,-104r639,0r0,104v-63,13,-174,-15,-174,56r0,1054v8,67,111,43,174,56r0,104r-639,0xm2963,0r0,-104v53,-9,123,2,159,-24v9,-7,13,-19,13,-32r0,-1054v-5,-70,-110,-43,-172,-56r0,-104r639,0r0,104v-63,13,-174,-15,-174,56r0,1054v8,67,111,43,174,56r0,104r-639,0","w":3651},"\u20a9":{"d":"400,-403r47,-264r-90,0xm883,-381r42,-286r-93,0xm337,-792r132,0r20,-115r-170,0xm809,-792r134,0r17,-115r-171,0xm1107,-1253r-33,221r108,0r0,125r-127,0r-17,115r144,0r0,125r-163,0r-105,700r-117,0r-192,-1065r-188,1065r-118,0r-112,-700r-168,0r0,-125r148,0r-18,-115r-130,0r0,-125r110,0r-35,-221r-75,-17r0,-104r335,0r0,104r-73,13v-15,2,-13,27,-11,43r29,182r212,0r61,-342r133,0r61,342r213,0v8,-70,26,-136,26,-208v-2,-9,-7,-15,-16,-17r-79,-13r0,-104r272,0r0,104"},"\u2179":{"d":"580,0r0,-96v35,-9,117,8,96,-43r-162,-221r-180,221v-13,15,-5,34,14,35r72,8r0,96r-400,0r0,-96r123,-17r293,-354r-303,-422r-108,-14r0,-96r503,0r0,96v-33,4,-103,1,-73,43r143,198r164,-198v11,-15,5,-36,-14,-37r-66,-6r0,-96r381,0r0,96r-115,14r-272,336r315,440r109,17r0,96r-520,0","w":1118},"\u217a":{"d":"580,0r0,-96v35,-9,117,8,96,-43r-162,-221r-180,221v-13,15,-5,34,14,35r72,8r0,96r-400,0r0,-96r123,-17r293,-354r-303,-422r-108,-14r0,-96r503,0r0,96v-33,4,-103,1,-73,43r143,198r164,-198v11,-15,5,-36,-14,-37r-66,-6r0,-96r381,0r0,96r-115,14r-272,336r315,440r109,17r0,96r-520,0xm1184,0r0,-96v56,-7,139,10,139,-54r0,-688r-131,0r0,-84r299,-102r104,0r0,874v3,61,87,48,146,54r0,96r-557,0xm1464,-1516v95,0,160,62,160,158v0,96,-64,160,-160,160v-96,0,-158,-65,-158,-160v0,-95,63,-158,158,-158","w":1800},"\u217b":{"d":"580,0r0,-96v35,-9,117,8,96,-43r-162,-221r-180,221v-13,15,-5,34,14,35r72,8r0,96r-400,0r0,-96r123,-17r293,-354r-303,-422r-108,-14r0,-96r503,0r0,96v-33,4,-103,1,-73,43r143,198r164,-198v11,-15,5,-36,-14,-37r-66,-6r0,-96r381,0r0,96r-115,14r-272,336r315,440r109,17r0,96r-520,0xm1184,0r0,-96v56,-7,139,10,139,-54r0,-688r-131,0r0,-84r299,-102r104,0r0,874v3,61,87,48,146,54r0,96r-557,0xm1464,-1516v95,0,160,62,160,158v0,96,-64,160,-160,160v-96,0,-158,-65,-158,-160v0,-95,63,-158,158,-158xm1866,0r0,-96v56,-7,139,10,139,-54r0,-688r-131,0r0,-84r299,-102r104,0r0,874v3,61,87,48,146,54r0,96r-557,0xm2146,-1516v95,0,160,62,160,158v0,96,-64,160,-160,160v-96,0,-158,-65,-158,-160v0,-95,63,-158,158,-158","w":2482},"\u2169":{"d":"739,0r0,-104r125,-9v22,-4,24,-27,10,-49r-229,-360r-276,358v-18,15,-7,47,12,49r123,11r0,104r-484,0r0,-104r132,-17r407,-534r-383,-596r-129,-19r0,-104r600,0r0,104r-108,10v-19,2,-24,29,-11,50r205,323r252,-325v18,-17,9,-49,-12,-50r-109,-8r0,-104r467,0r0,104r-129,19r-383,497r406,633r129,17r0,104r-615,0","w":1374},"\u216a":{"d":"739,0r0,-104r125,-9v22,-4,24,-27,10,-49r-229,-360r-276,358v-18,15,-7,47,12,49r123,11r0,104r-484,0r0,-104r132,-17r407,-534r-383,-596r-129,-19r0,-104r600,0r0,104r-108,10v-19,2,-24,29,-11,50r205,323r252,-325v18,-17,9,-49,-12,-50r-109,-8r0,-104r467,0r0,104r-129,19r-383,497r406,633r129,17r0,104r-615,0xm1421,0r0,-104v53,-9,123,2,159,-24v9,-7,13,-19,13,-32r0,-1054v-5,-70,-110,-43,-172,-56r0,-104r639,0r0,104v-63,13,-174,-15,-174,56r0,1054v8,67,111,43,174,56r0,104r-639,0","w":2109},"\u216b":{"d":"739,0r0,-104r125,-9v22,-4,24,-27,10,-49r-229,-360r-276,358v-18,15,-7,47,12,49r123,11r0,104r-484,0r0,-104r132,-17r407,-534r-383,-596r-129,-19r0,-104r600,0r0,104r-108,10v-19,2,-24,29,-11,50r205,323r252,-325v18,-17,9,-49,-12,-50r-109,-8r0,-104r467,0r0,104r-129,19r-383,497r406,633r129,17r0,104r-615,0xm1421,0r0,-104v53,-9,123,2,159,-24v9,-7,13,-19,13,-32r0,-1054v-5,-70,-110,-43,-172,-56r0,-104r639,0r0,104v-63,13,-174,-15,-174,56r0,1054v8,67,111,43,174,56r0,104r-639,0xm2156,0r0,-104v53,-9,123,2,159,-24v9,-7,13,-19,13,-32r0,-1054v-5,-70,-110,-43,-172,-56r0,-104r639,0r0,104v-63,13,-174,-15,-174,56r0,1054v8,67,111,43,174,56r0,104r-639,0","w":2844},"\u20aa":{"d":"543,-915v120,1,164,47,165,167r1,497r-133,0r0,-471v0,-40,-20,-60,-60,-60r-338,0r0,782r-133,0r0,-915r498,0xm975,-166v-1,120,-47,166,-167,166r-497,0r0,-649r133,0r0,516r338,0v40,0,60,-20,60,-60r0,-722r133,0r0,749","w":1025},"\u215f":{"d":"479,-698v-1,16,16,26,31,26r104,4r0,64r-464,0r0,-64r114,-4v17,0,29,-10,29,-26r0,-611r-199,25r0,-64r289,-92r96,0r0,742xm522,0r-149,0r905,-1423r149,0","w":1858},"\u2153":{"d":"1569,-231v0,-130,-130,-167,-266,-144r0,-92v124,5,234,-25,233,-151v-1,-111,-114,-164,-225,-132r0,152v-67,35,-184,15,-176,-72v13,-133,152,-172,299,-172v156,0,297,56,297,209v0,132,-112,177,-226,199v136,8,258,52,258,194v0,185,-181,250,-374,250v-117,0,-210,-31,-257,-98v-61,-85,36,-186,136,-131r43,137v28,8,53,18,90,16v100,-4,168,-64,168,-165xm522,0r-149,0r905,-1423r149,0xm479,-698v-1,16,16,26,31,26r104,4r0,64r-464,0r0,-64r114,-4v17,0,29,-10,29,-26r0,-611r-199,25r0,-64r289,-92r96,0r0,742","w":1858},"\u2155":{"d":"1274,-490v123,-45,322,-38,409,36v48,41,89,94,89,175v0,158,-114,235,-242,273v-138,41,-325,17,-392,-68v-54,-69,-1,-169,99,-146v9,1,20,4,31,8r43,148v153,22,277,-46,277,-174v0,-191,-247,-192,-422,-158r0,-430r557,0r0,137r-449,0r0,199xm479,-698v-1,16,16,26,31,26r104,4r0,64r-464,0r0,-64r114,-4v17,0,29,-10,29,-26r0,-611r-199,25r0,-64r289,-92r96,0r0,742xm522,0r-149,0r905,-1423r149,0","w":1858},"\u2159":{"d":"1213,-421v-8,166,8,356,163,356v105,0,135,-95,142,-201v11,-164,-162,-221,-305,-155xm1223,-489v73,-51,223,-87,327,-40v87,40,156,111,156,226v0,156,-87,249,-202,295v-40,15,-83,23,-128,23v-237,-4,-356,-140,-356,-379v0,-340,230,-484,574,-485r0,94v-209,-23,-344,81,-371,266xm479,-698v-1,16,16,26,31,26r104,4r0,64r-464,0r0,-64r114,-4v17,0,29,-10,29,-26r0,-611r-199,25r0,-64r289,-92r96,0r0,742xm522,0r-149,0r905,-1423r149,0","w":1858},"\u215b":{"d":"1436,-68v106,5,190,-74,142,-172v-41,-83,-150,-107,-237,-145v-32,36,-77,74,-75,145v3,104,66,167,170,172xm1511,-471v34,-35,64,-82,64,-152v0,-84,-52,-139,-137,-143v-97,-5,-156,94,-108,177v35,61,113,87,181,118xm479,-698v-1,16,16,26,31,26r104,4r0,64r-464,0r0,-64r114,-4v17,0,29,-10,29,-26r0,-611r-199,25r0,-64r289,-92r96,0r0,742xm522,0r-149,0r905,-1423r149,0xm1573,-442v94,30,198,83,194,213v-5,178,-161,239,-342,239v-142,0,-249,-52,-301,-142v-16,-29,-24,-60,-24,-95v1,-119,90,-162,180,-189v-71,-31,-145,-84,-145,-184v0,-179,141,-244,317,-244v152,0,283,60,283,211v0,115,-84,153,-162,191","w":1858},"\u2154":{"d":"133,-1370v169,-127,569,-100,559,164v-4,109,-60,179,-125,242v-89,86,-206,157,-323,229r364,0r25,-109r86,0r0,240r-651,0r0,-103r158,-114v94,-72,193,-156,246,-267v58,-120,8,-274,-134,-274v-31,0,-48,6,-72,12r0,166v-65,40,-190,31,-190,-67v0,-56,24,-94,57,-119xm1593,-231v-2,-131,-130,-167,-266,-144r0,-92v125,5,237,-24,236,-151v-1,-112,-116,-163,-228,-132r0,152v-66,35,-185,15,-176,-72v13,-133,153,-172,299,-172v156,0,297,56,297,209v0,132,-110,177,-223,199v135,9,258,52,258,194v0,141,-114,206,-234,234v-169,40,-398,19,-415,-141v-8,-79,89,-104,151,-72r43,137v123,45,260,-14,258,-149xm578,0r-150,0r905,-1423r150,0","w":1858},"\u2156":{"d":"1284,-490v123,-45,322,-38,409,36v48,41,89,94,89,175v0,158,-114,235,-242,273v-138,41,-325,17,-392,-68v-54,-69,-1,-169,99,-146v9,1,20,4,31,8r43,148v153,22,277,-46,277,-174v0,-191,-247,-192,-422,-158r0,-430r557,0r0,137r-449,0r0,199xm133,-1370v169,-127,569,-100,559,164v-4,109,-60,179,-125,242v-89,86,-206,157,-323,229r364,0r25,-109r86,0r0,240r-651,0r0,-103r158,-114v94,-72,193,-156,246,-267v58,-120,8,-274,-134,-274v-31,0,-48,6,-72,12r0,166v-65,40,-190,31,-190,-67v0,-56,24,-94,57,-119xm578,0r-150,0r905,-1423r150,0","w":1858},"\u2157":{"d":"1274,-490v123,-45,322,-38,409,36v48,41,89,94,89,175v0,158,-114,235,-242,273v-138,41,-325,17,-392,-68v-54,-69,-1,-169,99,-146v9,1,20,4,31,8r43,148v153,22,277,-46,277,-174v0,-191,-247,-192,-422,-158r0,-430r557,0r0,137r-449,0r0,199xm528,-834v-3,-130,-130,-165,-266,-143r0,-92v124,5,234,-26,234,-152v0,-111,-115,-162,-226,-131r0,152v-65,36,-184,12,-176,-72v13,-133,152,-172,299,-172v157,0,297,55,297,209v0,131,-112,175,-225,197v137,8,258,54,258,196v0,185,-182,250,-375,250v-116,0,-209,-33,-256,-100v-61,-85,34,-184,135,-131r43,139v123,45,261,-15,258,-150xm544,0r-150,0r905,-1423r150,0","w":1858},"\u215c":{"d":"1470,-844v152,0,281,61,281,211v0,114,-83,153,-160,191v100,34,195,81,195,213v0,178,-161,239,-342,239v-143,0,-250,-51,-302,-142v-16,-29,-24,-60,-24,-95v0,-120,89,-162,180,-189v-72,-30,-145,-84,-145,-184v0,-179,140,-244,317,-244xm526,-834v-3,-130,-130,-165,-266,-143r0,-92v124,5,234,-26,234,-152v0,-111,-115,-162,-226,-131r0,152v-65,36,-184,12,-176,-72v13,-133,152,-172,299,-172v157,0,297,55,297,209v0,131,-112,175,-225,197v137,8,258,54,258,196v0,141,-113,206,-233,234v-170,40,-399,18,-416,-142v-9,-81,89,-102,153,-73r43,139v123,45,261,-15,258,-150xm551,0r-150,0r906,-1423r149,0xm1454,-68v105,5,192,-74,143,-172v-41,-82,-150,-107,-237,-145v-33,36,-80,73,-78,145v3,104,69,167,172,172xm1530,-471v31,-36,63,-83,61,-152v-2,-85,-52,-139,-137,-143v-96,-4,-157,95,-108,177v36,61,115,87,184,118","w":1858},"\u2158":{"d":"1274,-490v123,-45,322,-38,409,36v48,41,89,94,89,175v0,158,-114,235,-242,273v-138,41,-325,17,-392,-68v-54,-69,-1,-169,99,-146v9,1,20,4,31,8r43,148v153,22,277,-46,277,-174v0,-191,-247,-192,-422,-158r0,-430r557,0r0,137r-449,0r0,199xm420,-1262r-283,334r283,0r0,-334xm590,-828r0,256r-170,0r0,-256r-412,0r0,-105r439,-507r143,0r0,512r149,0r0,100r-149,0xm522,0r-149,0r905,-1423r149,0","w":1858},"\u215a":{"d":"1213,-421v-8,166,8,356,163,356v105,0,135,-95,142,-201v11,-164,-162,-221,-305,-155xm1223,-489v73,-51,223,-87,327,-40v87,40,156,111,156,226v0,156,-87,249,-202,295v-40,15,-83,23,-128,23v-237,-4,-356,-140,-356,-379v0,-340,230,-484,574,-485r0,94v-209,-23,-344,81,-371,266xm231,-1073v123,-45,322,-38,409,36v48,41,89,94,89,175v0,158,-115,236,-243,274v-138,41,-323,17,-390,-68v-54,-69,-2,-170,98,-147v9,1,20,4,31,8r43,148v153,22,277,-46,277,-174v0,-191,-247,-192,-422,-158r0,-430r557,0r0,137r-449,0r0,199xm522,0r-149,0r905,-1423r149,0","w":1858},"\u215d":{"d":"1454,-68v105,5,192,-74,143,-172v-41,-82,-150,-107,-237,-145v-33,36,-80,73,-78,145v3,104,69,167,172,172xm1530,-471v31,-36,63,-83,61,-152v-2,-85,-52,-139,-137,-143v-96,-4,-157,95,-108,177v36,61,115,87,184,118xm231,-1073v123,-45,322,-38,409,36v48,41,89,94,89,175v0,158,-115,236,-243,274v-138,41,-323,17,-390,-68v-54,-69,-2,-170,98,-147v9,1,20,4,31,8r43,148v153,22,277,-46,277,-174v0,-191,-247,-192,-422,-158r0,-430r557,0r0,137r-449,0r0,199xm557,0r-149,0r905,-1423r149,0xm1470,-844v152,0,281,61,281,211v0,114,-83,153,-160,191v100,34,195,81,195,213v0,178,-161,239,-342,239v-143,0,-250,-51,-302,-142v-16,-29,-24,-60,-24,-95v0,-120,89,-162,180,-189v-72,-30,-145,-84,-145,-184v0,-179,140,-244,317,-244","w":1858},"\u215e":{"d":"1382,-68v85,0,154,-34,154,-118v0,-131,-155,-153,-250,-199v-31,37,-79,74,-76,145v4,104,68,172,172,172xm1456,-471v34,-35,64,-82,64,-152v0,-85,-53,-139,-138,-143v-95,-4,-158,94,-108,177v36,60,114,87,182,118xm371,-627r0,37r-164,0r422,-690r-375,0r-21,113r-90,0r0,-260r666,0r0,86xm449,0r-150,0r905,-1423r150,0xm1520,-442v93,30,196,83,192,213v-5,178,-160,239,-342,239v-142,0,-247,-52,-299,-142v-16,-29,-24,-60,-24,-95v0,-120,89,-162,180,-189v-72,-30,-146,-84,-146,-184v0,-179,141,-244,318,-244v151,0,280,62,280,211v0,114,-82,153,-159,191","w":1858},"\u203c":{"d":"860,-305v95,0,164,63,164,162v0,99,-65,168,-164,168v-98,0,-166,-63,-166,-168v0,-102,69,-162,166,-162xm692,-1241v-22,-183,263,-221,321,-75v9,21,17,46,13,75r-110,815r-111,0xm350,-305v95,0,164,63,164,162v0,99,-65,168,-164,168v-98,0,-166,-63,-166,-168v0,-102,69,-162,166,-162xm182,-1241v-22,-183,263,-221,321,-75v9,21,17,46,13,75r-110,815r-111,0","w":1208},"\u2024":{"d":"301,-317v103,0,170,69,170,172v0,103,-67,170,-170,170v-102,0,-172,-68,-172,-170v0,-103,69,-172,172,-172","w":651},"\u2025":{"d":"985,-317v103,0,170,69,170,172v0,103,-67,170,-170,170v-102,0,-172,-68,-172,-170v0,-103,69,-172,172,-172xm301,-317v103,0,170,69,170,172v0,103,-67,170,-170,170v-102,0,-172,-68,-172,-170v0,-103,69,-172,172,-172","w":1335},"\u201b":{"d":"410,-1274v0,49,-20,85,-41,113r-121,0v-16,162,68,226,194,299r-30,78v-184,-66,-336,-182,-336,-426v0,-122,63,-208,182,-213v98,-4,152,58,152,149","w":563},"\u201f":{"d":"711,-1163v-7,172,84,249,196,301r-33,78v-179,-68,-335,-175,-335,-414v0,-127,57,-225,184,-225v94,0,151,60,151,155v0,45,-21,79,-40,105r-123,0xm248,-1163v-14,166,94,243,198,301r-34,76v-184,-66,-336,-182,-336,-426v0,-122,63,-211,186,-211v92,0,150,53,150,145v0,52,-17,90,-41,115r-123,0","w":1028},"\u2027":{"d":"193,-817v73,0,120,48,120,121v0,72,-47,121,-120,121v-74,0,-121,-49,-121,-121v0,-73,47,-121,121,-121","w":385},"\u2016":{"d":"220,528r0,-2158r175,0r0,2158r-175,0xm659,528r0,-2158r175,0r0,2158r-175,0","w":1055},"\u2010":{"d":"68,-385r0,-217r536,0r0,217r-536,0","w":672},"\u2011":{"d":"68,-385r0,-217r536,0r0,217r-536,0","w":672},"\u2012":{"d":"50,-391r0,-203r1102,0r0,203r-1102,0"},"\u2015":{"d":"-5,-391r0,-203r2000,0r0,203r-2000,0","w":1990},"\u2032":{"d":"322,-1371v78,-61,295,-42,254,87v-3,10,-10,16,-15,22r-348,428r-168,0r227,-501v16,-13,34,-24,50,-36","w":582},"\u2033":{"d":"742,-1371v78,-61,295,-42,254,87v-3,10,-10,16,-15,22r-348,428r-168,0r227,-501v16,-13,34,-24,50,-36xm322,-1371v78,-61,295,-42,254,87v-3,10,-10,16,-15,22r-348,428r-168,0r227,-501v16,-13,34,-24,50,-36","w":1002},"\u2034":{"d":"322,-1371v78,-61,295,-42,254,87v-3,10,-10,16,-15,22r-348,428r-168,0r227,-501v16,-13,34,-24,50,-36xm742,-1371v78,-61,295,-42,254,87v-3,10,-10,16,-15,22r-348,428r-168,0r227,-501v16,-13,34,-24,50,-36xm1162,-1371v78,-61,295,-42,254,87v-3,10,-10,16,-15,22r-348,428r-168,0r227,-501v16,-13,34,-24,50,-36","w":1422},"\u2057":{"d":"322,-1371v78,-61,295,-42,254,87v-3,10,-10,16,-15,22r-348,428r-168,0r227,-501v16,-13,34,-24,50,-36xm742,-1371v78,-61,295,-42,254,87v-3,10,-10,16,-15,22r-348,428r-168,0r227,-501v16,-13,34,-24,50,-36xm1162,-1371v78,-61,295,-42,254,87v-3,10,-10,16,-15,22r-348,428r-168,0r227,-501v16,-13,34,-24,50,-36xm1582,-1371v78,-61,295,-42,254,87v-3,10,-10,16,-15,22r-348,428r-168,0r227,-501v16,-13,34,-24,50,-36","w":1842},"\u2035":{"d":"52,-1284v-40,-125,167,-152,253,-87v16,12,34,23,50,36r227,501r-168,0r-348,-428v-5,-6,-11,-12,-14,-22","w":582},"\u2036":{"d":"52,-1284v-40,-125,167,-152,253,-87v16,12,34,23,50,36r227,501r-168,0r-348,-428v-5,-6,-11,-12,-14,-22xm472,-1284v-40,-125,167,-152,253,-87v16,12,34,23,50,36r227,501r-168,0r-348,-428v-5,-6,-11,-12,-14,-22","w":1002},"\u2037":{"d":"52,-1284v-40,-125,167,-152,253,-87v16,12,34,23,50,36r227,501r-168,0r-348,-428v-5,-6,-11,-12,-14,-22xm472,-1284v-40,-125,167,-152,253,-87v16,12,34,23,50,36r227,501r-168,0r-348,-428v-5,-6,-11,-12,-14,-22xm892,-1284v-40,-125,167,-152,253,-87v16,12,34,23,50,36r227,501r-168,0r-348,-428v-5,-6,-11,-12,-14,-22","w":1422},"\u2038":{"d":"407,264r-143,-207r-142,207r-122,0r204,-293r121,0r204,293r-122,0","w":529},"\u2040":{"d":"0,-1128v6,-206,109,-334,319,-334v210,0,316,127,322,334r-109,0v-23,-103,-92,-166,-213,-166v-120,0,-190,63,-213,166r-106,0","w":641},"\u203f":{"d":"319,336v121,0,190,-65,213,-168r109,0v-6,206,-112,334,-322,334v-209,0,-313,-128,-319,-334r106,0v24,103,93,168,213,168","w":641},"\u2053":{"d":"1638,-627v-100,113,-354,180,-545,99r-87,-31v-136,-51,-314,-96,-448,-23v-56,30,-101,72,-148,117r0,-141v83,-96,238,-159,425,-132v195,28,372,169,591,106v88,-25,146,-80,212,-136r0,141","w":2048},"\u2017":{"d":"0,605r0,-165r1392,0r0,165r-1392,0xm0,340r0,-165r1392,0r0,165r-1392,0","w":1392},"\u2023":{"d":"93,-110r0,-808r808,404","w":985},"\u2186":{"d":"848,-407r256,-457r261,0r-559,897r-196,0r-569,-897r257,0r258,445r0,-955r292,0r0,967","w":1406},"\u2061":{"w":0},"\u2063":{"w":0},"\u2062":{"w":0},"\u202a":{"w":0},"\u200e":{"w":0},"\u202d":{"w":0},"\u202c":{"w":0},"\u202b":{"w":0},"\u200f":{"w":0},"\u202e":{"w":0},"\u2060":{"w":0},"\u200d":{"w":0},"\u200c":{"w":0},"\u200b":{"w":0},"\u206d":{"w":0},"\u206b":{"w":0},"\u206c":{"w":0},"\u206a":{"w":0},"\u2028":{"w":0},"\u206e":{"w":0},"\u206f":{"w":0},"\u2029":{"w":0},"\u2001":{"w":1971},"\u2003":{"w":2048},"\u202f":{"w":493},"\u2008":{"w":651},"\u2006":{"w":328},"\u2004":{"w":657},"\u2000":{"w":985},"\u2002":{"w":1024},"\u2005":{"w":493},"\u2007":{"w":1126},"\u2009":{"w":512},"\u200a":{"w":41},"\u00a0":{"w":600}}});
/*!
 * The following copyright notice may not be removed under any circumstances.
 * 
 * Copyright:
 * Copyright (c) SIL International, 1997-2009. All rights reserved.
 * 
 * Trademark:
 * Charis SIL is a trademark of SIL International.
 * 
 * Manufacturer:
 * SIL International
 * 
 * Vendor URL:
 * www.sil.org
 * 
 * License information:
 * http://scripts.sil.org/OFL
 */
Cufon.registerFont({"w":1153,"face":{"font-family":"Charis SIL","font-weight":400,"font-stretch":"normal","units-per-em":"2048","panose-1":"2 0 5 0 6 0 0 2 0 4","ascent":"1638","descent":"-410","x-height":"25","bbox":"-161.942 -1630 3324 535","underline-thickness":"120","underline-position":"-230","unicode-range":"U+000D-U+2188"},"glyphs":{" ":{"w":600},"\r":{"w":1024},"!":{"d":"346,-227v76,0,127,49,127,125v0,75,-52,127,-127,127v-75,0,-125,-52,-125,-127v0,-76,49,-125,125,-125xm346,-1407v103,0,131,73,122,181r-71,855r-100,0r-76,-903v1,-83,39,-133,125,-133","w":692},"\"":{"d":"88,-1362v-1,-61,30,-100,88,-100v59,0,94,39,86,100r-69,500r-33,0xm420,-1362v0,-61,28,-100,86,-100v59,0,97,39,88,100r-72,500r-33,0","w":682},"#":{"d":"664,-862r-101,293r297,0r101,-293r-297,0xm1073,-862r-96,293r330,0r0,102r-367,0r-172,514r-102,-33r159,-481r-297,0r-174,514r-100,-35r164,-479r-291,0r0,-102r324,0r100,-293r-332,0r0,-105r367,0r164,-483r104,33r-158,450r299,0r162,-483r109,33r-156,450r287,0r0,105r-324,0","w":1522},"$":{"d":"627,-109v125,-24,221,-93,221,-241v0,-153,-105,-206,-221,-244r0,485xm535,-1266v-113,27,-193,96,-193,234v0,132,97,181,193,219r0,-453xm629,-1374v129,0,245,23,348,47r0,323r-107,0r-30,-217v-32,-35,-102,-53,-211,-53r0,488v207,60,405,131,405,397v0,219,-160,317,-330,375v-28,10,-54,13,-77,14r0,211r-95,0r0,-211v-142,-7,-294,-18,-413,-53r0,-348r102,0r37,229v54,55,166,69,274,72r0,-518v-194,-49,-380,-135,-380,-373v0,-242,176,-335,383,-377r0,-154r94,0r0,148"},"%":{"d":"452,-650v93,-81,97,-305,76,-473v-13,-104,-40,-206,-147,-206v-150,0,-162,186,-162,352v0,140,17,264,89,327v38,33,106,34,144,0xm1454,-68v92,-82,97,-306,75,-475v-13,-104,-40,-207,-147,-207v-149,0,-161,188,-161,353v0,140,17,265,89,329v38,33,106,33,144,0xm381,-1407v289,0,353,318,294,601v-31,147,-119,259,-294,259v-286,0,-357,-321,-295,-600v32,-147,120,-260,295,-260xm512,0r-129,0r870,-1374r127,0xm1382,-827v289,0,354,317,294,599v-31,146,-119,261,-294,261v-286,0,-358,-322,-296,-600v32,-147,121,-260,296,-260","w":1761},"&":{"d":"434,-682v-78,56,-147,123,-147,254v0,149,76,247,181,295v114,52,263,10,334,-47v18,-15,37,-28,54,-43xm557,-803v105,-52,186,-124,186,-276v0,-130,-62,-217,-192,-221v-149,-3,-221,151,-165,288v36,89,107,148,171,209xm932,-1092v0,212,-154,289,-301,359r344,371v47,-65,99,-145,115,-240v1,-13,-21,-37,-35,-39r-111,-16r0,-86r420,0r0,86r-147,22v-39,134,-103,246,-175,346r166,191r183,10r0,88r-377,0r0,-49r-92,-103v-111,86,-221,177,-416,177v-197,0,-327,-103,-392,-243v-22,-50,-34,-104,-34,-163v0,-203,128,-296,274,-360v-78,-79,-172,-162,-172,-314v0,-173,103,-272,235,-321v143,-53,332,-12,412,63v55,52,103,122,103,221","w":1432},"'":{"d":"88,-1362v0,-61,28,-100,86,-100v59,0,96,39,88,100r-69,500r-33,0","w":350},"(":{"d":"311,-590v0,395,63,728,391,791r0,90v-429,-56,-581,-404,-581,-881v0,-472,155,-824,581,-878r0,90v-328,62,-391,395,-391,788","w":770},")":{"d":"459,-590v0,-393,-61,-726,-389,-788r0,-90v490,53,632,547,568,1096v-42,359,-206,617,-568,663r0,-90v329,-62,389,-398,389,-791","w":770},"*":{"d":"406,-743r-142,53r4,-152r207,-166r25,19xm467,-1036r-266,-15r-92,-116r145,-43r221,145xm618,-743r-94,-246r25,-19r207,166r4,152xm526,-1085r-28,0r-70,-256r84,-125r86,125xm823,-1051r-264,15r-10,-29r221,-145r145,43","w":1024},"+":{"d":"1087,-551r0,551r-126,0r0,-551r-551,0r0,-127r551,0r0,-551r126,0r0,551r551,0r0,127r-551,0","w":2048},",":{"d":"252,-250v176,-6,202,231,140,372v-55,123,-168,209,-326,226r0,-74v144,-30,230,-110,225,-288r-129,0v-19,-21,-39,-53,-37,-95v3,-80,47,-138,127,-141","w":573},"-":{"d":"90,-416r0,-153r475,0r0,153r-475,0","w":655},".":{"d":"262,-250v82,0,139,55,139,137v0,83,-57,138,-139,138v-82,0,-137,-55,-137,-138v0,-82,55,-137,137,-137","w":573},"\/":{"d":"131,190r-131,0r872,-1564r132,0","w":1004},"0":{"d":"744,-162v125,-179,132,-547,86,-821v-21,-128,-66,-242,-159,-297v-54,-33,-139,-34,-192,0v-183,119,-195,448,-177,746v12,187,53,363,177,440v54,33,138,33,192,0v28,-16,52,-40,73,-68xm728,-1380v311,117,397,565,312,972v-36,170,-119,304,-246,384v-120,75,-316,73,-436,0v-225,-137,-313,-491,-262,-852v34,-238,131,-426,327,-504v90,-35,215,-34,305,0"},"1":{"d":"676,-145v-1,24,21,44,45,45r192,8r0,92r-692,0r0,-92r207,-8v24,1,46,-21,45,-45r0,-1088r-317,55r0,-92r442,-137r78,0r0,1262"},"2":{"d":"248,-981v-75,0,-123,-43,-123,-121v0,-162,141,-240,279,-282v181,-56,399,-1,500,88v99,87,166,268,100,430v-71,172,-206,293,-340,412v-53,46,-110,92,-170,139r-181,143r607,0r36,-176r101,0r0,348r-961,0r0,-137r287,-237v150,-126,287,-250,375,-408v36,-65,53,-133,53,-205v0,-190,-107,-303,-293,-309v-72,-2,-126,30,-170,53r0,227v-23,20,-56,35,-100,35"},"3":{"d":"846,-391v4,-224,-210,-281,-432,-250r0,-127v210,11,381,-57,381,-258v0,-167,-105,-268,-269,-268v-79,0,-138,26,-184,57r0,205v-73,49,-221,27,-211,-88v13,-154,144,-223,279,-264v169,-50,376,-11,472,73v67,59,122,140,122,258v0,186,-145,283,-316,330v206,17,369,113,369,332v0,219,-154,335,-329,393v-222,73,-510,13,-604,-130v-63,-96,-1,-214,128,-188v15,3,26,5,35,11r61,182v76,50,212,73,309,26v106,-51,187,-146,189,-294"},"4":{"d":"705,-1145r-461,598r461,0r0,-598xm897,-408r0,441r-192,0r0,-441r-623,0r0,-141r672,-858r143,0r0,860r174,0r0,139r-174,0"},"5":{"d":"319,-811v120,-46,328,-76,469,-25v162,58,271,179,271,392v0,242,-137,378,-329,442v-111,36,-279,52,-400,12v-87,-28,-161,-74,-207,-136v-21,-29,-31,-56,-31,-83v0,-94,94,-134,184,-106r78,188v63,61,209,77,302,29v107,-55,194,-151,194,-297v0,-222,-131,-338,-350,-338v-122,0,-228,38,-326,69r0,-710r791,0r0,174r-646,0r0,389"},"6":{"d":"573,-74v207,0,286,-159,289,-368v3,-220,-131,-352,-358,-312v-81,14,-151,52,-207,95v-16,232,10,460,149,551v35,23,78,34,127,34xm303,-766v119,-115,331,-169,517,-96v149,59,251,191,251,393v0,241,-128,392,-303,465v-60,24,-126,37,-195,37v-354,0,-491,-250,-491,-621v0,-394,181,-647,472,-760v102,-39,217,-59,347,-59r0,127v-279,-23,-440,108,-534,295v-32,65,-53,138,-64,219"},"7":{"d":"395,-35r0,68r-217,0r676,-1233r-631,0r-33,186r-104,0r0,-360r981,0r0,114"},"8":{"d":"272,-385v0,193,108,307,303,307v171,0,287,-97,287,-262v0,-157,-114,-207,-233,-256r-172,-70v-100,55,-185,128,-185,281xm676,-762v79,-60,149,-137,149,-274v0,-162,-92,-267,-250,-267v-143,0,-235,93,-235,234v0,137,96,194,194,247v41,22,89,41,142,60xm764,-723v151,59,305,142,305,350v0,206,-135,319,-297,375v-192,67,-448,15,-556,-83v-74,-68,-134,-158,-134,-288v0,-202,146,-281,293,-342v-121,-54,-238,-140,-238,-311v0,-257,177,-385,438,-385v196,0,335,84,405,213v22,43,34,90,34,139v0,180,-130,268,-250,332"},"9":{"d":"289,-932v-3,220,131,352,358,312v81,-14,151,-52,207,-95v16,-232,-11,-461,-150,-551v-35,-23,-77,-34,-126,-34v-208,0,-286,159,-289,368xm578,-1407v353,0,493,249,493,621v0,395,-182,647,-473,760v-102,39,-218,59,-348,59r0,-127v279,23,441,-108,536,-295v32,-65,53,-138,64,-219v-87,75,-188,129,-342,129v-206,0,-335,-105,-396,-255v-45,-113,-38,-265,8,-374v73,-173,222,-299,458,-299"},":":{"d":"262,-250v82,0,139,55,139,137v0,83,-57,138,-139,138v-82,0,-137,-55,-137,-138v0,-82,55,-137,137,-137xm262,-1012v82,0,139,55,139,138v0,82,-57,137,-139,137v-82,0,-137,-55,-137,-137v0,-83,55,-138,137,-138","w":573},";":{"d":"252,-250v176,-6,202,231,140,372v-55,123,-168,209,-326,226r0,-74v144,-30,230,-110,225,-288r-129,0v-19,-21,-39,-53,-37,-95v3,-80,47,-138,127,-141xm264,-1012v82,0,135,56,135,138v0,82,-56,137,-137,137v-82,0,-137,-55,-137,-137v0,-83,56,-138,139,-138","w":573},"<":{"d":"410,-551r0,-127r1228,-471r0,127r-1097,408r1097,407r0,127","w":2048},"=":{"d":"410,-365r0,-127r1228,0r0,127r-1228,0xm410,-737r0,-127r1228,0r0,127r-1228,0","w":2048},">":{"d":"410,-80r0,-127r1097,-407r-1097,-408r0,-127r1228,471r0,127","w":2048},"?":{"d":"270,-1098v-93,10,-168,-19,-168,-108v0,-256,481,-238,630,-102v67,61,122,147,122,268v0,265,-203,357,-389,444r0,227r-115,0r0,-297v151,-57,293,-154,297,-358v3,-190,-105,-283,-293,-283xm410,-227v77,0,127,51,127,127v0,76,-52,125,-127,125v-76,0,-125,-51,-125,-127v0,-76,49,-125,125,-125","w":995},"@":{"d":"745,-469v0,157,84,259,225,207v61,-22,106,-73,144,-119r82,-424v-2,-64,-54,-117,-121,-117v-178,0,-264,130,-307,276v-16,55,-23,114,-23,177xm1583,133v-210,117,-513,233,-831,155v-292,-72,-491,-259,-572,-545v-74,-262,-2,-577,107,-742v159,-240,402,-416,782,-416v327,0,544,139,647,371v82,184,57,481,-30,633v-71,124,-170,228,-308,277v-38,13,-74,19,-108,19v-114,0,-159,-57,-160,-170v-87,84,-163,168,-297,168v-179,0,-256,-147,-256,-334v0,-256,144,-424,321,-514v123,-63,287,-48,390,13r37,-47r114,0r-139,608v-22,76,-7,169,76,160v154,-18,232,-167,281,-311v47,-140,41,-346,-17,-470v-89,-189,-263,-313,-524,-313v-347,0,-562,165,-696,389v-103,173,-138,478,-54,701v100,264,312,446,668,446v228,0,395,-72,540,-152","w":1917},"A":{"d":"643,-1143r-199,537r400,0xm883,0r0,-88r118,-10v12,2,25,-24,21,-35r-141,-375r-473,0r-136,369v-3,63,96,39,150,51r0,88r-412,0r0,-88r119,-25r477,-1294r154,0r475,1264v9,57,86,38,135,55r0,88r-487,0","w":1380},"B":{"d":"780,-729v220,5,379,98,379,323v0,299,-224,406,-520,406r-573,0r0,-88v57,-10,151,13,151,-53r0,-1092v-2,-63,-94,-44,-151,-53r0,-88r548,0v266,2,461,75,461,330v0,195,-144,271,-295,315xm549,-100v234,0,388,-60,387,-289v-1,-198,-123,-270,-330,-270v-59,0,-130,8,-184,12r0,541xm422,-756v245,14,437,-37,432,-274v-4,-177,-121,-251,-315,-250r-117,6r0,518","w":1239},"C":{"d":"1204,-47v-154,62,-424,112,-622,53v-254,-75,-423,-251,-481,-512v-90,-407,103,-730,403,-848v170,-67,414,-63,585,-7r115,34r0,321r-123,0r-30,-186v-22,-66,-100,-83,-173,-94v-277,-42,-454,118,-526,336v-48,144,-48,370,-2,516v71,225,250,385,550,349v61,-7,127,-18,138,-71r47,-223r119,0r0,332","w":1284},"D":{"d":"1114,-686v0,-379,-161,-589,-532,-590r-156,0r0,1178v139,-2,274,2,380,-36v209,-75,308,-262,308,-552xm1289,-996v79,178,70,477,-13,644v-109,220,-312,352,-641,352r-569,0r0,-88v57,-10,153,12,153,-53r0,-1092v-3,-62,-95,-44,-153,-53r0,-88r528,0v347,2,585,132,695,378","w":1425},"E":{"d":"770,-627v1,-14,-21,-37,-37,-37r-307,0r0,564r518,0v17,1,35,-26,37,-39r37,-203r110,0r0,342r-1062,0r0,-88v57,-10,151,12,151,-53r0,-1092v-3,-62,-94,-44,-151,-53r0,-88r995,0r0,305r-123,0r-31,-168v-2,-18,-18,-39,-37,-39r-444,0r0,510r307,0v17,1,35,-20,37,-35r21,-141r104,0r0,457r-104,0","w":1194},"F":{"d":"926,-1049r-29,-188v-4,-18,-15,-37,-35,-37r-436,0r0,533r313,0v18,1,35,-23,37,-37r19,-144r102,0r0,461r-102,0r-19,-143v-2,-13,-20,-37,-37,-37r-313,0r0,500v1,23,17,44,43,45r137,8r0,88r-538,0r0,-88v57,-10,151,13,151,-53r0,-1092v-1,-23,-17,-44,-43,-45r-125,-8r0,-88r996,0r0,325r-121,0","w":1108},"G":{"d":"621,-124v112,51,282,51,397,11r0,-409v-1,-24,-17,-42,-43,-43r-137,-10r0,-89r534,0r0,89v-54,12,-147,-11,-147,53r0,473v-168,64,-430,115,-641,55v-254,-73,-421,-249,-483,-510v-67,-281,30,-562,177,-706v156,-153,457,-239,755,-174r190,47r0,331r-123,0r-33,-184v-14,-56,-76,-63,-126,-82v-99,-37,-238,-22,-331,19v-192,85,-297,275,-297,553v0,290,108,485,308,576","w":1423},"H":{"d":"938,0r0,-88v59,-11,160,15,160,-53r0,-529r-674,0r0,529v1,23,17,43,43,45r117,8r0,88r-518,0r0,-88v57,-10,151,12,151,-53r0,-1092v-4,-60,-95,-42,-151,-51r0,-90r518,0r0,90v-58,12,-160,-16,-160,51r0,461r674,0r0,-461v-4,-63,-102,-41,-160,-51r0,-90r518,0r0,90v-56,10,-151,-12,-151,51r0,1092v3,62,94,44,151,53r0,88r-518,0","w":1522},"I":{"d":"68,0r0,-88v61,-12,165,17,165,-53r0,-1092v-4,-65,-106,-40,-165,-51r0,-90r540,0r0,90v-61,12,-168,-17,-168,51r0,1092v1,23,18,44,43,45r125,8r0,88r-540,0","w":676},"J":{"d":"282,-74v245,22,289,-189,289,-430r0,-729v-1,-23,-17,-44,-43,-45r-129,-8r0,-88r541,0r0,88v-60,11,-162,-15,-162,53r0,715v0,335,-116,551,-450,551v-104,0,-204,-30,-277,-58r0,-350r123,0r45,250v6,30,31,48,63,51","w":993},"K":{"d":"948,0r0,-63r-381,-547r-143,0r0,469v4,65,102,43,162,53r0,88r-520,0r0,-88v57,-10,151,13,151,-53r0,-1092v-2,-63,-94,-44,-151,-53r0,-88r520,0r0,88v-60,11,-162,-15,-162,53r0,537r74,0r446,-545v10,-13,-5,-34,-16,-35r-105,-10r0,-88r434,0r0,88r-139,16r-418,500r459,672r148,10r0,88r-359,0","w":1307},"L":{"d":"55,0r0,-88v60,-12,162,16,162,-53r0,-1092v-1,-23,-17,-43,-43,-45r-119,-8r0,-88r523,0r0,88v-58,10,-154,-13,-154,53r0,1133r430,0v18,0,43,-18,45,-35r33,-246r119,0r0,381r-996,0","w":1087},"M":{"d":"1214,0r0,-88v58,-10,154,13,154,-53r0,-1129r-471,1270r-102,0r-455,-1251r0,1110v4,65,102,43,162,53r0,88r-443,0r0,-88v59,-11,160,16,160,-53r0,-1092v-1,-23,-17,-43,-43,-45r-117,-8r0,-88r459,0r0,55r371,1006r371,-1000r0,-61r471,0r0,88v-58,10,-156,-13,-156,53r0,1092v3,63,98,44,156,53r0,88r-517,0","w":1794},"N":{"d":"1417,-1286v-58,11,-157,-15,-157,53r0,1233r-160,0r-762,-1147r0,1006v1,23,17,43,43,45r117,8r0,88r-443,0r0,-88v60,-11,162,15,162,-53r0,-1092v-1,-23,-20,-44,-45,-45r-121,-8r0,-88r406,0r0,51r682,1030r0,-940v-1,-23,-18,-44,-43,-45r-117,-8r0,-88r438,0r0,88","w":1477},"O":{"d":"1073,-260v137,-192,140,-653,-1,-852v-69,-98,-166,-178,-322,-178v-245,0,-358,167,-409,370v-57,227,-17,516,81,659v68,100,165,180,323,181v159,0,258,-81,328,-180xm1370,-966v64,171,64,389,-1,560v-94,249,-289,439,-619,439v-331,0,-528,-186,-622,-435v-64,-170,-65,-395,-1,-567v93,-251,288,-438,621,-438v332,0,528,192,622,441","w":1497},"P":{"d":"541,-616v229,1,349,-113,352,-342v4,-263,-190,-335,-467,-314r0,645v33,3,77,11,115,11xm541,-1374v336,-1,569,81,565,413v-4,358,-305,479,-680,439r0,381v1,23,17,44,43,45r135,8r0,88r-538,0r0,-88v57,-10,153,12,153,-53r0,-1092v-1,-23,-20,-44,-45,-45r-123,-8r0,-88r490,0","w":1186},"Q":{"d":"949,-130v212,-120,291,-466,217,-786v-48,-206,-163,-376,-410,-376v-246,0,-360,166,-411,370v-57,228,-15,514,83,658v69,101,168,183,328,184v74,0,137,-19,193,-50xm1044,371v-250,1,-394,-100,-395,-344v-268,-43,-442,-205,-526,-439v-71,-198,-45,-482,41,-639v111,-202,287,-356,590,-356v337,0,536,186,632,438v61,162,64,373,10,541v-79,241,-256,404,-528,451v5,163,105,250,283,247v72,0,142,-9,197,-22r0,88v-85,18,-195,36,-304,35","w":1513},"R":{"d":"424,-713v261,16,455,-30,455,-288v0,-242,-200,-283,-455,-273r0,561xm1102,-1010v0,220,-157,298,-336,342v176,36,247,158,280,332v20,106,53,195,148,230v34,13,79,20,135,20r0,92v-40,9,-83,27,-135,27v-283,0,-300,-237,-372,-441v-44,-124,-131,-206,-306,-204v-31,0,-64,2,-92,4r0,467v2,63,94,44,151,53r0,88r-509,0r0,-88v57,-10,151,12,151,-53r0,-1092v-3,-62,-94,-44,-151,-53r0,-88r534,0v290,1,502,77,502,364","w":1329},"S":{"d":"776,-1234v-152,-127,-481,-54,-463,179v9,119,78,172,163,217v210,111,511,145,511,453v0,208,-128,323,-296,382v-178,63,-470,36,-611,-40r0,-363r129,0r27,232v20,61,87,73,156,85v200,33,386,-41,386,-235v0,-95,-63,-149,-124,-192v-172,-121,-434,-156,-526,-356v-39,-85,-28,-215,10,-299v88,-195,367,-280,642,-211v56,14,104,29,156,45r0,319r-117,0r-31,-196v-1,-7,-5,-14,-12,-20","w":1067},"T":{"d":"1073,-1047r-29,-192v-4,-19,-13,-35,-34,-35r-293,0r0,1133v1,23,17,44,43,45r131,8r0,88r-555,0r0,-88r131,-8v26,-1,42,-22,43,-45r0,-1133r-295,0v-20,0,-33,16,-35,35r-28,192r-119,0r0,-327r1161,0r0,327r-121,0","w":1227},"U":{"d":"770,-104v258,0,350,-152,350,-404r0,-725v-4,-65,-102,-43,-162,-53r0,-88r445,0r0,88v-60,12,-162,-16,-162,53r0,778v1,339,-187,488,-526,488v-334,1,-500,-160,-500,-488r0,-778v-2,-63,-95,-44,-152,-53r0,-88r521,0r0,88v-59,11,-160,-16,-160,53r0,725v-4,256,85,404,346,404","w":1458},"V":{"d":"1225,-1264r-459,1297r-156,0r-469,-1299r-121,-20r0,-88r490,0r0,88r-121,10v-13,0,-22,24,-18,37r360,1012r346,-1008v6,-17,-13,-40,-28,-41r-113,-10r0,-88r407,0r0,88","w":1364},"W":{"d":"1761,-1262r-313,1295r-150,0r-342,-1135r-335,1135r-148,0r-334,-1295r-119,-24r0,-88r469,0r0,88r-122,12v-18,1,-26,22,-21,41r244,924r321,-1065r158,0r330,1098r227,-957v4,-20,-10,-40,-29,-41r-129,-12r0,-88r418,0r0,88","w":1907},"X":{"d":"752,0r0,-88r118,-12v18,-1,38,-21,25,-43r-272,-428r-316,434v-12,20,-3,37,25,39r123,10r0,88r-435,0r0,-88r123,-25r412,-565r-373,-584r-135,-24r0,-88r514,0r0,88r-104,10v-28,0,-38,21,-25,41r250,385r276,-379v16,-21,-5,-42,-22,-43r-105,-14r0,-88r429,0r0,88r-132,20r-380,523r403,630r127,25r0,88r-526,0","w":1298},"Y":{"d":"1151,-1266r-412,682r0,443v1,23,18,44,43,45r131,8r0,88r-553,0r0,-88v63,-12,172,17,172,-53r0,-412r-393,-709r-119,-24r0,-88r486,0r0,88r-103,10v-27,2,-35,20,-24,41r289,535r317,-529v19,-64,-89,-43,-139,-57r0,-88r416,0r0,88","w":1282},"Z":{"d":"80,0r0,-90r762,-1182r-533,0v-21,0,-32,17,-35,35r-30,190r-121,0r0,-327r964,0r0,94r-763,1176r583,0v20,0,31,-19,35,-37r35,-238r121,0r0,379r-1018,0","w":1178},"[":{"d":"279,270r0,-1720r497,0r0,92r-319,0r0,1534r319,0r0,94r-497,0","w":866},"\\":{"d":"870,190r-870,-1564r131,0r870,1564r-131,0","w":1001},"]":{"d":"90,270r0,-94r322,0r0,-1534r-322,0r0,-92r500,0r0,1720r-500,0","w":866},"^":{"d":"547,-1128r-211,-203r-213,203r-123,0r258,-347r154,0r258,347r-123,0","w":670},"_":{"d":"0,305r0,-130r686,0r0,130r-686,0","w":686},"`":{"d":"47,-1327v-76,-39,-55,-174,47,-174v58,0,81,25,107,55r274,318r-117,0","w":717},"a":{"d":"426,-96v104,0,182,-53,252,-97r0,-354v-147,38,-256,71,-342,137v-48,37,-64,75,-64,144v0,98,54,170,154,170xm543,-1012v216,-2,324,97,323,307r0,574v1,61,86,43,142,51r0,80r-303,0r-27,-121v-97,67,-189,146,-342,146v-190,0,-305,-151,-258,-349v37,-155,206,-191,368,-244v64,-21,143,-38,232,-57r0,-88v-1,-136,-57,-200,-191,-202v-56,-1,-112,14,-145,26r0,178r-149,0v-44,0,-78,-13,-76,-59v7,-148,141,-200,274,-228v50,-11,101,-14,152,-14","w":1042},"b":{"d":"1067,-541v0,361,-216,538,-588,541r-295,0r0,-1362r-155,0r0,-68r264,-79r82,0r0,573v114,-61,319,-110,459,-38v144,74,233,222,233,433xm375,-98v317,27,483,-94,483,-402v0,-236,-97,-391,-313,-391v-61,0,-122,18,-170,33r0,760","w":1137},"c":{"d":"470,-136v135,66,317,19,415,-57r0,117v-98,50,-200,101,-346,101v-235,0,-371,-130,-436,-308v-47,-128,-40,-310,7,-431v80,-205,294,-343,578,-284v103,21,193,73,193,191v0,76,-47,118,-121,121v-44,1,-76,-19,-103,-35r0,-178v-56,-38,-147,-27,-209,4v-185,94,-223,495,-84,671v28,37,64,67,106,88","w":954},"d":{"d":"443,-144v108,59,260,13,337,-42r0,-697v-89,-29,-224,-46,-312,-1v-126,64,-196,195,-196,382v0,171,60,297,171,358xm362,-966v112,-51,290,-55,418,-21r0,-375r-155,0r0,-68r264,-79r82,0r0,1378v0,59,78,44,131,51r0,80r-322,0r0,-109v-86,63,-175,134,-317,134v-215,0,-327,-143,-371,-317v-78,-307,51,-574,270,-674","w":1155},"e":{"d":"610,-100v140,0,233,-70,324,-127r0,125v-136,90,-364,174,-568,96v-180,-69,-296,-227,-296,-477v0,-249,113,-414,288,-491v59,-25,123,-38,193,-38v275,0,397,190,381,477r-664,0v5,245,91,435,342,435xm729,-627v7,-165,-44,-284,-199,-284v-164,0,-237,124,-251,284r450,0","w":1004},"f":{"d":"426,-1453v102,-71,371,-95,371,67v0,65,-45,96,-95,110r-188,-133v-118,63,-127,247,-121,438r254,0r0,105r-254,0r0,735v3,67,103,41,164,51r0,80r-498,0r0,-80v56,-9,144,14,144,-51r0,-735r-131,0r0,-72r131,-37v-4,-186,54,-309,139,-407v25,-29,55,-51,84,-71","w":668},"g":{"d":"410,-55v-108,33,-192,137,-140,271v36,93,121,159,252,159v138,0,228,-66,272,-159v40,-85,1,-169,-60,-199v-86,-43,-213,-54,-324,-72xm506,-426v135,0,190,-113,190,-252v0,-135,-57,-250,-190,-250v-138,0,-195,109,-195,252v0,140,58,250,195,250xm369,-356v-143,-38,-254,-132,-254,-308v0,-237,170,-348,411,-348v97,0,170,32,238,62r276,0r0,100r-204,0v57,76,77,233,18,328v-73,118,-214,190,-405,180v-21,33,-27,91,-17,137r105,11v172,20,349,52,421,172v85,142,-35,297,-126,370v-144,116,-496,174,-661,38v-57,-47,-101,-114,-101,-208v0,-147,88,-223,217,-248v-51,-107,7,-219,82,-286","w":1075},"h":{"d":"713,-1012v185,0,278,119,278,310r0,571v2,59,82,44,137,51r0,80r-456,0r0,-80v52,-7,129,8,129,-51r0,-528v1,-135,-65,-204,-203,-203v-88,1,-164,28,-223,59r0,672v-1,60,77,44,129,51r0,80r-461,0r0,-80v55,-9,141,13,141,-51r0,-1231r-153,0r0,-68r262,-79r82,0r0,624v92,-52,203,-127,338,-127","w":1176},"i":{"d":"70,0r0,-80v55,-9,143,14,143,-51r0,-731r-141,0r0,-72r250,-78r81,0r0,881v2,63,91,43,148,51r0,80r-481,0xm322,-1450v75,0,124,50,124,125v0,76,-49,127,-124,127v-76,0,-127,-51,-127,-127v0,-76,51,-125,127,-125","w":621},"j":{"d":"125,375v86,-54,98,-191,98,-332r0,-909r-145,0r0,-68r252,-78r84,0r0,881v-1,157,-18,311,-80,410v-70,111,-184,186,-340,190v-102,4,-182,-56,-148,-159v12,-37,44,-60,80,-72xm311,-1450v76,0,125,49,125,125v0,76,-49,127,-125,127v-76,0,-127,-51,-127,-127v0,-76,51,-125,127,-125","w":598},"k":{"d":"745,0r0,-80r-256,-385r-114,0r0,334v0,59,78,44,131,51r0,80r-465,0r0,-80v55,-9,143,14,143,-51r0,-1231r-155,0r0,-68r262,-79r84,0r0,985r41,0r301,-340v12,-15,-1,-34,-17,-35r-84,-8r0,-80r398,0r0,80r-131,14r-271,289r353,512r108,12r0,80r-328,0","w":1094},"l":{"d":"399,-129v-1,17,26,42,43,43r111,6r0,80r-498,0r0,-80r109,-6v17,1,45,-26,45,-43r0,-1233r-156,0r0,-68r262,-79r84,0r0,1380","w":608},"m":{"d":"1290,-1012v190,0,264,131,264,314r0,567v1,61,86,43,142,51r0,80r-459,0r0,-80v51,-8,129,10,129,-51r0,-522v1,-132,-51,-210,-182,-209v-86,1,-158,28,-219,57r0,674v0,58,77,44,129,51r0,80r-449,0r0,-80v51,-8,129,10,129,-51r0,-535v0,-124,-55,-196,-180,-196v-86,0,-161,29,-219,59r0,672v0,58,77,44,129,51r0,80r-463,0r0,-80v55,-9,143,14,143,-51r0,-711r-141,0r0,-67r248,-78r84,0r0,102v94,-53,196,-127,334,-127v118,0,183,66,225,142r75,-44v79,-42,171,-98,281,-98","w":1741},"n":{"d":"636,-1002v217,-51,351,88,351,306r0,565v1,59,79,44,133,51r0,80r-452,0r0,-80v52,-7,129,9,129,-51r0,-533v-2,-134,-57,-199,-197,-198v-87,0,-162,28,-225,59r0,672v0,58,77,44,129,51r0,80r-463,0r0,-80v55,-9,143,14,143,-51r0,-711r-143,0r0,-67r250,-78r84,0r0,102r87,-47v54,-28,113,-56,174,-70","w":1161},"o":{"d":"679,-103v230,-151,208,-829,-120,-817v-212,7,-274,206,-274,426v0,173,49,317,152,390v66,47,175,45,242,1xm917,-860v107,113,169,371,93,572v-68,182,-213,313,-455,313v-241,0,-384,-130,-451,-311v-45,-124,-45,-286,0,-410v69,-183,212,-313,457,-316v160,-2,275,67,356,152","w":1114},"p":{"d":"375,-102v85,35,227,43,312,-2v150,-79,221,-309,165,-524v-34,-130,-110,-240,-268,-240v-85,0,-150,32,-209,61r0,705xm375,-885v102,-86,295,-178,459,-91v148,79,241,241,241,468v0,256,-115,419,-301,495v-111,45,-272,45,-399,19r0,305v0,26,21,41,45,43r121,13r0,79r-498,0r0,-79v51,-14,141,6,141,-56r0,-1153r-141,0r0,-67r252,-78r80,0r0,102","w":1145},"q":{"d":"444,-130v82,50,227,34,318,5r0,-770v-40,-8,-89,-23,-141,-23v-292,0,-388,280,-327,568v21,99,74,173,150,220xm412,-974v152,-55,379,-41,540,-5r0,1294v4,60,89,42,142,54r0,77r-496,0r0,-77v50,-9,117,1,152,-24v9,-6,12,-17,12,-30r0,-370v-117,59,-315,118,-457,41v-146,-79,-235,-236,-235,-455v0,-272,136,-431,342,-505","w":1124},"r":{"d":"580,-989v62,-40,145,-17,200,8r0,203r-80,0v-26,-28,-57,-58,-110,-56v-92,4,-148,66,-205,127r0,576v4,71,114,40,178,51r0,80r-512,0r0,-78v55,-10,144,12,144,-53r0,-711r-148,0r0,-67r254,-78r84,0r0,182r53,-59v41,-45,91,-92,142,-125","w":801},"s":{"d":"436,-913v-125,0,-193,87,-154,198v106,177,463,145,463,418v0,225,-161,320,-391,322v-108,1,-208,-24,-284,-52r0,-272r104,0r25,174v44,27,106,57,182,57v133,0,233,-116,167,-232v-90,-158,-373,-155,-449,-332v-10,-24,-15,-52,-15,-83v0,-210,153,-297,369,-297v100,0,193,19,262,47r0,242r-107,0r-16,-143v-31,-23,-98,-47,-156,-47","w":815},"t":{"d":"541,-90v59,0,103,-15,141,-35r0,82v-75,36,-165,68,-276,68v-158,0,-219,-69,-220,-230r0,-680r-131,0r0,-67r140,-66r92,-217r90,0r0,248r289,0r0,102r-289,0r0,572v0,133,35,223,164,223","w":696},"u":{"d":"575,-115v88,-1,161,-33,222,-61r0,-686r-144,0r0,-70r250,-80r84,0r0,881v2,58,81,45,135,51r0,80r-325,0r0,-117v-85,61,-188,142,-328,142v-201,0,-283,-126,-283,-332r0,-555r-143,0r0,-70r252,-80r82,0r0,666v0,144,54,232,198,231","w":1165},"v":{"d":"954,-895r-358,895r-133,0r-330,-895r-113,-12r0,-80r453,0r0,80v-49,9,-152,-12,-129,51r229,641r252,-641v17,-60,-70,-44,-120,-51r0,-80r358,0r0,80","w":1083},"w":{"d":"1479,-895r-281,895r-145,0r-242,-766r-270,766r-146,0r-262,-895r-113,-12r0,-80r449,0r0,80v-49,9,-144,-13,-127,51r170,637r264,-768r146,0r237,768r189,-637v14,-61,-72,-44,-123,-51r0,-80r358,0r0,80","w":1604},"x":{"d":"584,0r0,-80v34,-8,102,6,88,-45r-176,-262r-201,262v-11,12,-5,36,12,37r103,8r0,80r-390,0r0,-80r117,-16r293,-381r-278,-412r-121,-18r0,-80r450,0r0,80v-35,10,-104,-5,-92,47r162,229r178,-229v12,-13,3,-35,-14,-37r-88,-10r0,-80r368,0r0,80r-110,18r-275,350r303,443r111,16r0,80r-440,0","w":1044},"y":{"d":"309,317v74,-80,132,-206,172,-319r-348,-893r-113,-12r0,-80r453,0r0,80v-49,9,-139,-15,-129,51r238,604r243,-604v17,-61,-74,-44,-125,-51r0,-80r365,0r0,80r-107,12r-421,1025v-57,122,-118,261,-239,318v-97,45,-247,17,-247,-96v0,-60,27,-90,66,-123","w":1085},"z":{"d":"70,0r0,-109r542,-782r-356,0v-20,-1,-39,26,-41,43r-20,152r-105,0r0,-291r758,0r0,84r-561,805r413,0v24,-4,42,-25,45,-49r21,-162r111,0r0,309r-807,0","w":946},"{":{"d":"858,252v-190,1,-352,-34,-408,-168v-56,-134,-4,-364,-54,-519v-32,-100,-139,-116,-273,-114r0,-92v134,2,240,-14,273,-114v57,-172,-31,-468,106,-597v75,-71,211,-89,356,-90r0,84v-111,3,-214,27,-240,119v-43,151,21,401,-77,526v-52,66,-126,95,-217,117v164,31,275,127,274,326r2,160v0,116,14,217,98,250v45,18,103,27,160,28r0,84","w":999},"|":{"d":"300,528r0,-2158r124,0r0,2158r-124,0","w":724},"}":{"d":"877,-549v-143,-1,-239,12,-274,114v-58,172,32,468,-105,597v-76,71,-210,89,-357,90r0,-84v111,-3,215,-27,241,-119v42,-152,-21,-401,77,-526v51,-66,127,-98,217,-119v-168,-31,-276,-126,-276,-324r0,-160v0,-116,-14,-217,-99,-250v-45,-18,-103,-27,-160,-28r0,-84v191,-1,352,34,409,169v56,133,2,363,53,518v33,102,132,115,274,114r0,92","w":999},"~":{"d":"1147,-602v158,0,257,-68,383,-158r0,133v-112,74,-212,144,-385,144v-225,0,-363,-138,-592,-138v-146,0,-270,83,-377,160r0,-133v117,-83,230,-145,389,-145v221,0,366,137,582,137","w":1706},"\u2020":{"d":"526,264r-28,0r-90,-866r90,-340r28,0r90,340xm182,-891r-153,-94r153,-96r289,82r0,28xm842,-891r-287,-80r0,-28r287,-82r153,96xm526,-1028r-28,0r-82,-287r96,-155r96,155","w":1024},"\u2022":{"d":"215,-914v208,-78,385,109,309,310v-38,104,-175,176,-309,124v-103,-40,-180,-175,-125,-308v24,-58,67,-104,125,-126","w":614},"\u2026":{"d":"342,-250v81,0,137,55,137,137v0,83,-55,138,-137,138v-82,0,-137,-55,-137,-138v0,-82,55,-137,137,-137xm1024,-250v81,0,137,55,137,137v0,84,-54,138,-137,138v-83,0,-137,-55,-137,-138v0,-82,55,-137,137,-137xm1704,-250v82,0,139,56,139,137v0,83,-54,138,-137,138v-82,0,-137,-55,-137,-138v0,-82,53,-137,135,-137","w":2048},"\u2013":{"d":"0,-422r0,-141r1024,0r0,141r-1024,0","w":1024},"\u2014":{"d":"0,-422r0,-141r2048,0r0,141r-2048,0","w":2048},"\u201c":{"d":"250,-881v-108,2,-173,-78,-170,-190v5,-189,122,-289,225,-381r76,14v-82,87,-182,177,-168,351r129,0v16,19,31,45,31,81v0,76,-46,124,-123,125xm672,-881v-163,9,-203,-194,-142,-329v46,-103,119,-176,197,-242r76,14v-76,93,-182,176,-168,351r129,0v15,21,31,44,31,79v0,76,-47,123,-123,127","w":928},"\u201d":{"d":"258,-1452v164,-9,200,194,140,328v-46,104,-119,176,-197,243r-76,-16v73,-89,184,-176,168,-348r-129,0v-16,-21,-31,-46,-31,-82v0,-76,48,-121,125,-125xm678,-1452v107,0,173,80,170,190v-5,189,-122,289,-225,381r-76,-16v80,-87,187,-179,168,-348r-129,0v-17,-20,-31,-46,-31,-84v-1,-71,51,-123,123,-123","w":928},"\u2018":{"d":"250,-881v-109,2,-173,-76,-170,-190v5,-189,122,-289,225,-381r76,14v-78,92,-181,177,-168,351r129,0v15,21,31,45,31,81v0,76,-46,124,-123,125","w":506},"\u2019":{"d":"256,-1452v106,0,173,78,170,190v-5,189,-122,289,-225,381r-76,-16v82,-88,182,-175,168,-348r-129,0v-65,-69,-20,-207,92,-207","w":506},"\u2044":{"d":"131,190r-131,0r872,-1564r132,0","w":1004},"\u2039":{"d":"78,-410r0,-163r340,-281r0,143r-238,219r238,218r0,143","w":500},"\u203a":{"d":"82,-131r0,-143r235,-218r-235,-219r0,-143r340,281r0,163","w":500},"\u2021":{"d":"512,268r-94,-155r80,-287r28,0r82,287xm182,-121r-153,-96r153,-94r289,80r0,30xm842,-121r-287,-80r0,-30r287,-80r153,94xm526,-260r-28,0r-109,-342r109,-340r28,0r107,342xm182,-891r-153,-94r153,-96r289,82r0,28xm842,-891r-287,-80r0,-28r287,-82r153,96xm526,-1028r-28,0r-80,-287r94,-155r96,155","w":1024},"\u201a":{"d":"256,-229v107,0,173,77,170,190v-5,189,-122,289,-225,381r-76,-16v82,-88,182,-176,168,-349r-129,0v-65,-69,-20,-206,92,-206","w":506},"\u201e":{"d":"258,-229v164,-9,200,194,140,328v-46,104,-119,176,-197,243r-76,-16v74,-90,185,-176,168,-349r-129,0v-16,-21,-31,-45,-31,-81v0,-76,48,-121,125,-125xm678,-229v107,0,173,79,170,190v-5,189,-122,289,-225,381r-76,-16v80,-87,186,-180,168,-349r-129,0v-18,-20,-31,-45,-31,-83v-1,-71,51,-123,123,-123","w":928},"\u2030":{"d":"452,-650v93,-81,97,-305,76,-473v-13,-104,-40,-206,-147,-206v-150,0,-162,186,-162,352v0,140,17,264,89,327v38,33,106,34,144,0xm1294,-68v92,-82,97,-306,75,-475v-13,-104,-40,-207,-146,-207v-150,0,-162,187,-162,353v0,140,17,265,89,329v38,33,106,34,144,0xm2016,-68v92,-82,98,-306,76,-475v-13,-104,-40,-207,-146,-207v-150,0,-162,187,-162,353v0,140,18,265,90,329v38,33,104,34,142,0xm381,-1407v289,0,353,318,294,601v-31,147,-119,259,-294,259v-286,0,-357,-321,-295,-600v32,-147,120,-260,295,-260xm432,0r-129,0r871,-1374r126,0xm1223,-827v289,0,353,316,294,599v-31,147,-119,261,-294,261v-286,0,-359,-321,-297,-600v32,-147,122,-260,297,-260xm1946,-827v289,0,353,316,294,599v-31,147,-119,261,-294,261v-286,0,-358,-321,-296,-600v32,-147,121,-260,296,-260","w":2324},"\u20b3":{"d":"361,-507r379,0r-35,-115r-310,0xm425,-722r250,0r-126,-421xm943,-407r80,264v5,53,65,39,108,55r0,88r-390,0r0,-88r95,-10v10,2,20,-26,17,-35r-83,-274r-438,0r-79,268v-3,19,7,39,23,41r97,10r0,88r-330,0r0,-88r95,-25r87,-294r-115,0r0,-100r144,0r34,-115r-178,0r0,-100r208,0r202,-685r123,0r206,685r208,0r0,100r-178,0r34,115r144,0r0,100r-114,0"},"\u217d":{"d":"470,-136v135,66,317,19,415,-57r0,117v-98,50,-200,101,-346,101v-235,0,-371,-130,-436,-308v-47,-128,-40,-310,7,-431v80,-205,294,-343,578,-284v103,21,193,73,193,191v0,76,-47,118,-121,121v-44,1,-76,-19,-103,-35r0,-178v-56,-38,-147,-27,-209,4v-185,94,-223,495,-84,671v28,37,64,67,106,88","w":954},"\u2184":{"d":"416,25v-145,-1,-250,-51,-346,-101r0,-117v100,76,278,124,414,57v124,-61,192,-196,192,-378v0,-178,-58,-315,-170,-381v-60,-35,-152,-43,-208,-4r0,178v-26,16,-59,35,-103,35v-109,0,-150,-123,-97,-209v76,-121,320,-147,482,-83v185,72,305,234,305,491v0,237,-108,397,-275,473v-58,26,-122,39,-194,39","w":954},"\u216d":{"d":"1204,-47v-154,62,-424,112,-622,53v-254,-75,-423,-251,-481,-512v-90,-407,103,-730,403,-848v170,-67,414,-63,585,-7r115,34r0,321r-123,0r-30,-186v-22,-66,-100,-83,-173,-94v-277,-42,-454,118,-526,336v-48,144,-48,370,-2,516v71,225,250,385,550,349v61,-7,127,-18,138,-71r47,-223r119,0r0,332","w":1284},"\u20ac":{"d":"1073,-47v-140,70,-408,114,-578,33v-202,-96,-326,-286,-367,-538r-168,0r20,-93r139,0v-2,-29,-2,-62,0,-92r-159,0r20,-94r148,0v37,-260,168,-446,377,-535v140,-60,339,-46,471,5r97,34r0,321r-104,0r-26,-186v-16,-64,-85,-74,-146,-94v-297,-35,-433,183,-471,455r471,0r-20,94r-458,0r0,92r441,0r-19,93r-415,0v25,211,109,367,269,440v97,44,264,44,327,-20v6,-7,9,-15,10,-24r40,-223r101,0r0,332"},"\u20a1":{"d":"714,-1374v27,0,51,1,75,4r46,-167r94,0r-50,181v68,15,139,39,204,59r0,306r-111,0r-27,-178v-11,-45,-55,-57,-97,-73r-297,1094v103,53,291,59,371,-9v7,-6,10,-15,11,-23r42,-213r108,0r0,317v-136,60,-391,108,-565,48r-48,177r-98,0r58,-211v-23,-11,-43,-22,-63,-35r-67,246r-98,0r85,-308v-127,-121,-216,-291,-216,-531v0,-296,128,-496,322,-605v67,-37,142,-62,225,-73r47,-169r94,0xm583,-1241v-202,76,-299,272,-301,551v0,126,20,234,61,325xm759,-1262v-25,0,-51,-3,-75,0r-274,1005v19,22,38,41,58,57"},"\u20a0":{"d":"847,-315v-12,-41,1,-105,-38,-117r-179,0r0,367r317,0v11,1,22,-17,24,-25r24,-132r71,0r0,222r-670,0r0,-57v38,-6,98,7,98,-35r0,-334v-201,-25,-327,-149,-380,-318v-87,-279,47,-535,249,-624v138,-61,332,-32,455,13r0,209r-80,0r-20,-121v-12,-34,-32,-40,-73,-51v-303,-83,-461,237,-388,554v30,131,109,225,237,259r0,-296v-2,-40,-60,-30,-98,-35r0,-57r627,0r0,198r-80,0v-10,-42,-11,-93,-29,-127v-4,-5,-9,-7,-16,-7r-268,0r0,331r179,0v12,1,22,-12,24,-23r14,-91r68,0r0,297r-68,0"},"\u20a2":{"d":"724,-114v14,69,131,16,169,-1v20,-9,32,-22,35,-41r42,-223r108,0r0,332v-135,62,-381,112,-560,53v-235,-77,-382,-258,-433,-512v-79,-395,83,-725,363,-848v153,-67,373,-62,526,-7r104,34r0,321r-111,0r-27,-186v-19,-63,-89,-83,-156,-94v-259,-42,-410,126,-473,336v-56,186,-41,473,37,623v50,96,116,166,203,207v17,-2,30,-15,30,-34r0,-482r-111,0r0,-51r191,-58r63,0r0,136r40,-45v43,-44,88,-103,162,-110v30,-3,75,13,94,23r0,153r-60,0v-20,-22,-42,-44,-83,-42v-68,3,-111,49,-153,95r0,421"},"\u20b5":{"d":"581,-1252v-224,64,-324,272,-324,563v0,292,98,501,324,568r0,-1131xm678,-1373v133,4,228,40,334,76r0,306r-104,0r-26,-177v-17,-62,-83,-72,-144,-90v-18,-5,-39,-6,-60,-6r0,1157v78,1,141,-15,182,-50v6,-7,10,-15,11,-23r40,-213r101,0r0,317v-85,37,-208,74,-334,76r0,211r-97,0r0,-216v-264,-37,-417,-213,-489,-443v-78,-252,-12,-558,108,-704v89,-108,213,-195,381,-216r0,-154r97,0r0,149"},"\u2185":{"d":"1024,6v-130,31,-311,39,-442,0v-254,-75,-423,-251,-481,-512v-90,-407,103,-730,403,-848v170,-67,414,-63,585,-7r115,34r0,321r-123,0r-30,-186v-22,-66,-100,-83,-173,-94v-277,-42,-454,118,-526,336v-48,144,-48,370,-2,516v71,225,250,385,550,349v61,